-0.011040615519746484,10.276279401808022,5.651184658786053,16.991205027662065,9.415120655495674,0.5929633239497727,16.083406175027616,5.654850199511271,-2.4729701624690854,0.583984863301234,-0.04866796366077269,4.356741483667425,6.6280103724327395,0.6365519642334667,1.7034714335641425,0.34954618748743954,1.3712169023787035,-5.911338392455373,3.3971873464041367,4.052111910587025,1.1948466511296452,9.27759709547966,-0.29854744540460215,12.744003560513587,2.474818123566838,-0.02659273055065738,0.8622973710102186,0.31144205334992475,1.5746663980561981,10.498496804958302,10.075422317734432,0.008450163526664136
-0.43029310061807763,-7.0156365851181235,-4.063967367421296,5.944537344622015,0.880092526082226,-5.621954930681829,-9.87720352844929,6.798825374658003,-4.086283285692301,-6.98195384885075,-0.34370131540430726,-4.333681807073794,-5.168874343917545,-0.9552261028834919,-7.51120517665562,-8.750796827097028,-4.965597192063996,9.830874293866726,0.18994034614631128,-5.929304612334771,3.629530633997382,-2.3461872723707407,-2.8504580079991055,-2.99455905350104,-2.1805738061109077,-0.3180423081480976,2.6878095350879,-3.6112204705421513,-9.646622827902762,-6.047506499993998,-4.457325746605589,-0.11699234915318861
-0.7382013108098331,2.2571418461834374,-6.158976345058085,-9.451346646523964,-11.0603264859472,-0.8004208643149878,-0.5318587115735488,-0.9993734177657942,-5.926443498304384,8.30496172765901,-0.832386937608951,-0.18727195939758465,-1.9302488624005711,-0.7358978537817554,-5.979762706499529,-2.426535240462023,-2.5085926843023505,13.210073109935331,1.9159396495077958,-1.3953998693758072,-0.08053394450959658,-6.0385238049530345,-0.32293901230360333,-7.640649986042343,0.03290235871164998,-0.7683400946097455,-8.3346175812678,-11.473759183657252,-6.527650559980283,-4.331516215903173,-1.9404287359903558,-1.0104802471963648
-0.6593221201530021,-6.271323464376262,0.3222872252374439,0.05854952556225418,1.005449753032117,-4.810723046848894,1.6759242854248984,3.587867517769589,-4.960864267345111,-2.9654241838404944,-0.7002439897427079,-4.505185772273076,-2.6250921732247305,-2.5328132194509565,0.4679355756721273,-8.654977399940686,-0.9512055317883398,14.754794822571387,-1.9383972660482403,1.8471123589275964,-2.4737879964478187,1.1244527347422628,-2.488288801507787,-1.3143315885328068,2.0416606026691575,-0.6161328532550755,1.3751620939814688,-2.691475202382216,-2.5669183958133917,-6.016163965177136,-0.9673109012163954,-0.6919729751449069
-0.08590866805404417,-0.5300268386025637,-2.0258359284394425,0.03894078465042941,7.101382416906419,3.494673967353958,7.530125346055377,5.987111499830338,-4.7201211381479435,5.488720825976752,-0.03026469070962467,2.8790456113717102,-1.5346894354339211,-1.3866986138658117,0.20677970203437301,2.4605782198936224,-1.8273498207847163,4.900783252985359,-2.580145648362119,3.4768113603005504,-0.7714876237662249,-1.4899833372092248,1.4954568547664862,5.808606705478266,-2.717719150697212,-0.13922573920092662,1.6323366023773909,-0.8908643324116021,3.3229033211658225,-3.6052509025847885,8.476036350389627,0.2530534508242112
-0.31285742260893035,2.645298441302899,-2.5929987837439143,2.1625490986892966,-3.4383557262520155,1.0731115356567196,0.07471404401893733,-4.966257849466845,-1.9687603881525932,-4.147395495258359,-0.34507034023392585,-2.08010134390259,-1.7106103055003143,-1.5124765183417284,-4.940840850036152,-0.08053685602596156,-2.454676969507776,0.7597302034566457,-2.9472579089116517,-6.07081511649258,1.1189090082309239,0.2972979878374211,1.330942871999706,-3.1312780176293544,1.403546741322836,-0.3052000850013775,-2.713941689023897,-1.5813159969936381,-0.750518592737061,-0.31446200402079755,-1.8845216496481632,-0.683829367751282
0.1347197313662046,9.346088008717308,4.182371340983073,-6.494917251105348,-0.8128112212576732,8.400083248102165,-2.107243196875063,4.997072046764344,6.632917317104156,5.908648758274566,0.14856591314069423,-1.6617454710714925,12.912209329118461,0.2452404494520241,7.699050832810786,11.693706145409072,3.3731040833339057,9.582886573097166,6.485767652341244,4.257873199117474,1.4905656093818933,2.7710197718652485,5.245691645114737,-0.6282034491006118,6.685522703223239,0.07126251765539428,5.925782936903055,7.875948095189225,3.445188229637236,3.395490038376018,8.31597787254205,0.49164751488786596
-0.47784936912063863,4.74289461746179,-3.7094463091691514,-1.8724135726943762,1.3263219063221294,1.2433013389217324,-9.08878444376926,5.345136629664006,0.12872716609359108,4.477399603704272,-0.4173861928967355,2.9592319422859834,-4.124722023515649,0.6194615971172321,1.424580864965014,-14.517052818683036,2.425243081959324,13.109140769562217,2.2605183914908786,0.8151323465751122,-2.1630366085221597,-6.860352918715621,-3.536073472067043,4.851373812717534,0.26018309766080017,-0.35093197349353555,1.9151939416819914,15.894792239496853,-1.6955767346025004,-5.8485757357008294,-2.2933194751694073,-0.6243604015551715
-0.0668943574854396,-11.086879525897668,-9.349126898413166,-5.9374179665769935,-1.1884848359503006,-2.749889859053093,4.426716206928936,4.495815783876484,-1.420261664656427,-0.47429981219333844,-0.17527965713157556,-0.9443470872405497,6.201324786114259,-1.4720800980496571,5.5568862790597615,10.473693784079549,1.4145773630358063,5.405063637194023,0.9538884125955566,3.947472633143617,-4.299048527439225,-3.0718450294257478,-0.14863849165418702,9.949401473114737,-0.02678683255436536,-0.1483251622078859,2.44828991828219,5.236571673733261,2.9854195838836928,7.7397374769793545,3.3399995008915084,-0.5720321826069932
-0.4577904611086395,-6.207590619810125,-9.127358654598998,-2.568457943630585,-3.6177842017834347,2.608507275225083,-13.91118267170449,-8.31176414587285,3.485447797145861,0.42830702324883957,-0.4574777334947185,-0.3706250502275907,-12.585784938431233,1.5421657550535968,-4.2484012511161735,-0.7524438600498665,0.23782863052854153,-2.5164728464996595,-9.033051568367835,1.6655161221634656,-0.7605423644874661,6.146469128249655,1.7148863244528856,-10.897526932902709,-3.0455999038604125,-0.4609438565612823,-0.17507777301514998,-8.417115302807966,3.0416143577361283,-5.832750746802033,-6.75845747454762,-0.8657477605867678
-0.583801869704475,1.7639942962288442,-6.053195847406668,3.7230748076000584,-18.76747475435217,-6.094394208990116,-11.383518966574826,-5.737203444969527,8.96375784572912,3.0107577630657176,-0.6705098130641596,6.2652747547296705,-5.659093763916824,-0.4709407809636993,-8.345983017194172,0.8780722999433711,-3.9181572164436322,-17.270231710721045,-6.856495121100778,-6.070553432294954,-4.995466112828872,-12.903006781430879,-2.4126759136347413,4.60448630825713,-10.15030618800808,-0.6172779119125962,-12.566480130870419,1.0654548145786906,-2.8860093067885435,-9.50531230299742,-8.020072107963735,-0.9643647996366003
-0.8664501640175295,0.7672433588092934,-12.605898395183255,-2.5323617286810154,-8.696789559515183,-0.8512846350636162,2.999921781800438,-2.466864197248042,0.5905532741941601,-1.5525222453220189,-0.8473563931021475,-4.3439401932662,2.2846414570051947,-2.3095406939788568,-0.8679351114905346,-0.2205140112855474,1.6569021031603586,-2.0797406064560886,-6.036390205287499,-4.933672530494519,-2.4828649435092154,-2.153920511027376,-2.6077352830041898,2.064898809757234,-1.306835177566431,-0.749629668957728,-4.550051304142166,2.3099630697933184,2.591599581669892,-13.710534548388493,-0.8817555757230071,-1.27097896348663
-0.7684468629746434,-0.8764731291474371,-9.665664048091218,-4.303813020287581,-9.437553232760413,-3.0024003188976494,-5.703482513276991,-0.9030690970913937,0.23440016985421144,3.5077365648730905,-0.8668086894661727,5.073566744822601,5.268760642022977,-1.2348433111695942,-2.8830103078736307,-2.4063176806545665,-1.4369543845371815,8.467912369355412,3.6708265581683377,-12.285452654954526,-0.4741582741150163,3.9166578736089526,-4.481541355237429,-6.771996308610777,-1.959776565589466,-0.8410705897367023,-2.130123337350477,-6.26613591664288,3.6616165190854426,-4.516926514193365,2.5339507336794247,-1.2912727507976203
-0.49460760665517917,11.90338338825454,3.872447631966001,2.0538846783688753,-5.221184625890821,4.090903872047556,-4.946524978936604,-0.7801553831283015,-3.1880571891224485,6.210753405963788,-0.45012726762130884,4.563335058668838,5.999331493523811,-3.072098300101439,-6.028745672911002,-3.4022942520739763,-3.4519092022484377,-3.4398169645909,-0.2642799893653118,6.6210353067879995,-1.2051750681617355,1.0770244030664078,1.5524732155041083,5.919732158566157,-4.997551606467202,-0.4731383590107525,-2.2558040695043298,0.11807519771127335,2.5484384957777193,-2.861342551405503,-5.745699313868117,-0.4071316820525245
-0.3285597512844947,4.135791592605262,0.8283473020044082,-2.4897437035515075,-9.386251879449285,-1.9199911584322025,16.986416325222297,-1.662388904056205,-3.545436815454565,-9.212364789904466,-0.4335244568188981,-6.227887570153298,-3.643882924779054,1.4091709146463018,2.0458104886701376,-4.13940318165652,0.37673502004614684,-8.31789692713996,-2.0672527345279263,3.604943748829118,-4.572769727412749,-5.099183403261042,-1.4442921196842782,-8.930167988819324,-3.631986053567182,-0.3643891201991341,-2.8623078956321377,-13.615439541494025,-3.5359726089113765,1.2446581604112743,-2.085191648431416,-0.7915998205963103
0.19324539556547027,0.45017632209675823,9.666245943795843,9.624551831045888,12.595081676609741,1.3176112952656391,5.226371572756979,4.99588609892975,1.4475824483492523,9.70190570654991,0.18412973036210895,6.381441455185993,0.9001025578054577,-0.50223791668089,4.005294344642098,10.617655404798247,3.566296473802751,4.730630509756487,-2.606043790486282,1.0387393625995225,-1.6138867502575849,7.494661023118695,0.14317997018259637,8.261457077546936,3.978565918178935,0.23431888305119758,4.957008779561505,-3.2102059274311694,1.5606531287872274,7.748557444553985,1.868525851708014,0.1716108910434217
-0.28826409811049597,18.21602538874638,-3.354097598651117,3.0920276249453513,8.250736616428131,6.627568755294963,-6.285290088434226,3.043300384083888,7.367009908238311,-0.025448272385227726,-0.22085838777704314,-3.6510894286027233,-3.331960166356023,0.6908779623272133,3.4888942002484433,-6.257828442102511,-0.9108725211375917,0.6193046855253732,1.9555101999787121,-4.265030074834883,0.2489390470546551,-4.779659146980051,-1.1134644442683959,-2.919684505522407,-4.414498105722928,-0.19775002603580993,5.880776211158007,4.2417630209757435,2.5881322746174416,-2.8338486342379134,-6.651440814937505,-0.07239448750435662
-0.3758109573773005,1.1295068505706545,7.654128350130228,-12.459190047727407,15.889026834426112,-1.6833774418875647,-0.02313060457009411,-6.46142698887226,-13.52666778460513,-4.9569755275076535,-0.39001376607575444,2.4259355582911564,-2.845213329587155,4.474757905556985,-0.7596217130223759,-10.658675789556076,2.424512320640692,-4.464756944248849,0.1977248197566304,1.2752822203689593,-1.0880006325282863,4.127140747906899,1.2775578689685596,-3.2607847574344255,3.8330111384883025,-0.27567852526662673,-3.636168208216077,-5.7575823953001,0.48814250952484517,-3.2639801543499045,2.815740917892519,-0.24998231202613908
-0.4368419921162027,-17.515531354052744,6.029497218928567,-17.54605378352842,-16.919656960093274,-0.5908073590138044,-11.972075138157926,-0.4712001567274491,4.18582237821067,0.265178985189973,-0.4532028637871383,-13.130238199694338,6.271213827048955,-1.2646777042766173,0.3160840719375706,-7.470176999067346,-1.9936502138943666,-8.555888347533731,0.6722305190654869,-5.372245490760287,0.49274684581459255,-9.008896932659933,-0.20050183483954945,-17.730126780589735,5.4389863756966905,-0.4238964668823974,-3.143888385430206,5.708802103438123,-2.4591701912394766,-2.73611519452234,-9.826386874979013,-0.4737278258393161
-1.140362642867522,-1.2456892144039493,5.578087599346384,2.540358186466241,-18.298049756083987,0.6136664699298023,-5.6588777064097995,-7.87042953586928,-8.812857041968947,-1.6763352678840304,-1.1622050779927624,-6.14224855439769,-3.719289971855474,-1.3313993392580172,-3.6480688110495643,-0.19765870933758514,-3.017809387605259,-7.457966623749212,0.6923759680710716,1.0191289382848314,-2.708216335448735,-2.5878014381275167,-2.789546357054523,2.8477246296207275,-11.634612961529363,-1.0465047766458975,-2.853838184676312,-11.826830679003665,4.497690503113478,-7.693283920837191,-12.397833294141632,-1.0303403513721212
-0.9632184843173832,-9.993721812831815,9.285356473169783,-4.075794024610295,-1.2322854142536286,2.257743046703085,-10.449354546892021,-12.229440894972953,1.1303421138243277,3.3125922991353423,-0.9436270465789361,-6.257719470536778,-6.234439978526205,-1.1508289970014736,-4.5310966439284766,1.0197858990336033,0.558077508576616,-1.1930451018120123,-3.216471340941131,-9.269997004419109,-1.877463298913039,5.226128336943687,-3.111935077666413,-8.596638440332137,-0.09891794317866291,-0.8715877437671847,-3.7409558474428737,8.322579706161847,1.9770295007825887,-2.3555565175910536,0.6678071293293372,-1.2899870317229518
-0.3108036290731982,-13.636363337717993,6.0519598262383285,-1.23241075759876,0.31349573314874113,-3.9391245526498473,1.4094210632951842,7.170950761233985,-3.4704581104206387,11.394305830821116,-0.31845053190172296,-1.9374884538743264,-6.988614158656225,-0.16159326085410713,-5.290276314944396,-1.1942968591274317,-0.3418787280681013,0.7027359051740701,-6.770465641596973,-4.746364375883375,0.8236102027698888,-1.5459654515811674,8.507392473849952,3.202038717030401,5.440254821743927,-0.339200360834334,-9.09749422114984,-1.0169165027631295,-6.92553213957085,9.626389630311161,-2.2756956475140453,0.24627305562513724
-0.01547789017360246,-2.069960301056509,-2.1661355995603215,-2.357304012892573,-1.9216789169489403,-4.506982399852737,-9.753430802132302,-8.723130199807114,0.567920332737759,-7.507453555641853,-0.04939580982096726,1.5315328265157142,-4.576419101073252,-0.8752421322912918,-0.8490506813782034,-7.196449848325357,-0.23630346350728357,-2.8337157207113086,-5.062373642390182,-1.8453978509779043,2.1644032341181285,-3.0344691849656757,-8.896595887916131,-9.230830145950609,-3.08568478163488,-0.07087369462530242,-6.058899993425016,-6.641334721886011,-1.9984628083395317,4.997374611923263,0.2060306595473533,-0.013439788864651693
0.31893936472249057,3.926144690645213,3.9639825664009583,-1.0077953750223958,-1.046118660244345,3.393923811973941,-1.5915695588500505,5.749311927602514,10.219099776149736,-8.71919305020573,0.45122820338727265,2.369240762413805,1.7206779284503437,3.9159234504264515,4.210639571292796,12.229501941540995,4.89817158321604,5.578863736037449,10.780550355392174,-1.1850221629240327,2.892825898057847,7.094451520854574,5.329419128059059,-6.027772022474918,0.8234797103229713,0.3991384486707316,0.6623872998303566,4.494893089808096,1.7657829295522676,0.416833212739227,5.952885025404945,1.0556627660657925
0.2414800427639082,3.007489613044782,4.4371867554713935,-9.391812510857406,3.0313993358078166,-3.54993138339307,-2.4097574383648204,1.5156620441264435,5.60581722220242,-8.319710018051827,0.25719284089262506,3.264473652706385,6.902080120606487,-0.2135412715863368,-1.0010473393973243,13.70560564167942,-0.07144628789438878,-5.692223053113068,-0.13842838592693882,3.273986659252768,0.25187406593607975,-8.130727843962967,2.253470777690077,0.1097379570012644,4.673121651288816,0.18709665941413628,-8.40137144535208,0.9417508614565204,1.475170745857942,3.4129766749878834,-0.15432670217192873,0.07142749614491964
-0.10339995445197217,-0.08542782580926866,5.3419740288380835,-9.155944920937698,-1.6340534641918467,-4.553645029205895,-3.0644760035569822,-4.163161924367261,-1.5852671210900784,1.7619190738219201,-0.10212799407112726,0.8896101414309304,-2.5465722755996243,2.3073018171995567,14.356309378288397,-1.4570162412623544,1.2101749368396073,4.826882847255078,6.285205086162769,-0.6354165257482565,1.27532539463057,-8.653496535850811,-1.2702927388203533,1.151130383036962,-0.1014486417189702,-0.06442126065467403,-9.28524154199359,-2.796908092727205,-0.33434663130972814,5.193546204300214,-1.5004261620675128,-0.19637818594327347
0.14798583314871483,-20.937747197263242,2.8191240136755797,-2.227821382514894,34.3740716214566,-2.1477907511649352,-6.546241401732254,2.394822510420415,-5.298524551431768,-17.630139706500206,0.004603476119506926,-0.7157854994322705,3.9396701796897644,1.7736935540141163,-5.30152916454951,2.570762463807656,0.012910119905706967,-11.279684606252136,-5.276100199591031,-1.7633999720825486,-2.244297620132639,-1.2006751848475194,2.3022673134763063,-0.6490581930119167,7.173957485278606,0.07094640856446285,16.94574442334542,-3.647264208860656,-1.0577461283617104,-4.048812128923778,-0.8591768296233238,-0.1470001477714551
-1.19280667002776,-4.770275805384001,3.880247332924344,11.677487460998421,1.816662803487867,1.3690877330331288,12.02849696113202,-0.47907658817607734,-7.155395320125985,-5.254675198893246,-1.1554088166000767,-0.15038885160867232,-5.919722507897757,-1.9310036474391703,6.0154001150339536,-3.496965092501772,1.244687515249391,-15.970694448047585,2.7734974517087148,-5.529325722213106,-1.406279555832151,-3.1174619987264953,-5.777223516256451,8.53480764031479,-7.193783199256599,-1.1275932703534772,-9.708083549667485,-5.382301372925153,3.6639272457716627,4.049485547021195,6.715892444545768,-1.3796089394565838
-0.9387440683781826,-9.314135449833719,-7.417987128997329,11.620780625455641,-2.678327938666268,-5.184224078570769,-11.020558573878686,-1.2718818796126223,-13.710685547277803,-4.141195142945181,-0.8756311913092502,1.232447337694698,-4.690665161737544,-2.1316739463538226,-3.225070629281095,1.6442054174219534,-5.034818294716556,-8.896028857311759,-6.392461183361984,-1.2018821809756135,-3.6047307445864667,-0.5174584980207063,-4.180966210939992,-5.080435622466092,-4.557380789959241,-0.8684413070291063,10.66436968556813,6.253252674958289,2.4095709537583305,18.926512812417155,7.687986142522187,-1.2671902762885878
-0.1728619721136125,5.850628971831567,-1.296662411091483,-0.5205034324199631,-4.186622869839,-0.9897647917755446,3.99592168935488,-3.101148779385097,-1.2889670139782536,0.672362666953485,-0.14868557580817157,-2.1694229785949526,7.587721223203261,-2.9509833657247757,-2.002059735670832,-6.349451306401317,0.3017969577395228,-6.942791052024197,1.538523881561943,15.291054735405892,-3.104615277508199,-0.10479284252914473,-2.713090125189902,5.099123585252103,-5.217367751723222,-0.034825594107168865,-5.479291218827787,-8.67936970472648,-2.129517299840661,2.9585250879935963,-8.937388525855035,-0.2557825672284325
0.04796891721841493,-0.533562671046661,-0.07629931677819306,4.641543412749776,-11.879575386282257,2.110234875946306,1.426296267001319,0.44189338286889435,1.7567354589991608,11.604977326049028,0.09063269394713763,0.5678372123675481,-3.54879911591515,-1.1718790032418571,-1.6735222390203675,2.649846937982792,0.35546676771512037,2.613906371603602,-6.9973319999030625,-8.000815278346384,-1.4466485485878005,0.3529872020665409,1.1345875066093047,-6.757872235625026,-2.3340625461288065,0.042013199894731304,1.5943366040645908,-1.1417768176872534,-2.9130161566742054,0.7125098971881345,-5.451608571783109,-0.175956318271876
0.32756269540798494,-1.878228438850987,-3.5748163044424874,7.239095279501149,-0.4578388192555181,2.1548578101305638,5.7827233895182655,1.1296790591077077,-9.429125499249716,4.328907925827021,0.18582759033424953,-4.42998894101885,-1.5171319565520636,-0.4792310135407496,-0.4590177663477555,-7.480874094602471,-1.9542811366122892,-5.450061359748543,4.807972562227229,-1.7556218823166005,-0.07840267881697631,-4.859375936014207,2.0813107369164046,11.122445108247929,0.4709816228777689,0.2702159581197901,2.611602054618498,2.407365219167825,-0.5852134879879356,-2.176710606569571,-1.8636971854881728,0.4240402406322718
0.14914882144390307,7.953935620172588,-3.159922457221748,4.525539387909105,3.5937320554195726,3.86941708587128,-2.6916380494776995,4.165896019131955,7.729597725819677,3.1494442850696163,0.1767920641287245,7.10297765181727,2.454009058077917,0.7411337986988876,-10.095933484006927,-10.355160122052487,3.4580236819622643,8.713999718358508,-1.5956764059596151,2.53291257934082,1.61131255719505,6.740463185420397,1.3579620613776962,-1.4098741031888122,-1.3947511714523229,0.16248915428639638,5.733088112976018,3.1990959278392106,5.63247128395633,2.010810214021544,5.521254258711784,0.44717866295016034
-0.02128481263941196,-8.509530502913922,-0.021881110957907665,4.293698879734383,9.588124979410493,3.2425893795690897,-2.816529503022745,-1.6258525188202992,7.8498053659940625,5.165043758668888,0.038781388082153374,-1.8404156063958095,1.4327800624312241,1.5296191262584335,-1.7952137221888869,-5.0764861447461875,-0.5929784902200005,7.324585642846642,3.1177244393533057,-7.159007979647795,2.1165799562249603,3.8009366690738027,-1.3786961872164936,-4.964340334004089,-1.2933283064285799,0.012230242075611075,-11.885922430397775,3.992785253971977,-1.4397656196965332,-6.972809638167395,3.7233922389876364,0.05661542963103181
-0.3472805630437203,-10.609104527079818,1.3110025984943303,-2.5343836232189667,-2.984251199242963,-3.2229194365289127,-7.975496551587112,4.4971540458121035,2.349543737298894,9.91046020538409,-0.25856296284845853,4.826119771426995,-7.48984046562252,1.3887085603990303,-5.908211582114186,-2.6189121252307057,0.9392653852503859,5.206360016086227,-0.6821980415845601,3.9024398323247786,-6.017169357264426,-2.2856224067954884,7.0654924183492955,-7.542769521774816,-1.0921168856704473,-0.2645978716507729,-0.24611835329133577,5.845738202807102,-0.2273024808508065,-0.9368317130122955,2.884245746381325,-0.5458987408293474
-1.1308030310118373,-3.9525107698066906,-7.189004474766886,-5.647351789880047,1.8858506918736422,-4.713498833060142,5.8434520524721645,-7.932808186292994,-7.821758066190965,1.73945301255795,-1.244533553208794,-7.811045202070441,-6.364358583638688,-0.5050525917054933,-5.379051754632606,3.531744687761895,-2.4823316020878385,-10.187968081565657,-6.745918965884887,-4.566345603707621,-2.5043950675357753,-1.0510448505144998,-4.7664866705339275,-0.5490691889251759,2.942401998612935,-1.1153491251563856,-8.452654797075578,-3.7716007678967522,-4.688178919964038,8.407074043585142,2.1463273307716992,-1.5606201942597198
-0.7730572810973598,8.069310882326214,11.225475029514199,13.5240905423804,-1.6292723495275583,-1.2538790163385065,-2.5890505542826245,5.143703101516428,-0.045873064878496066,-0.8559942749611787,-0.8027246426732147,-0.26305827135457943,1.2324606274587704,-1.7934996824041192,-5.290881143779457,-7.50625816227655,-6.570288788518068,-11.928751279064665,4.081376994394483,-1.9507399373608336,-2.8933123941699397,1.3904785784734075,-2.647456378668232,-9.477165902829883,-3.8727428978209084,-0.7080539197915976,2.7258780414020762,12.335079288505549,6.21580459921904,-16.097886144699324,-20.206293776804056,-1.0983058151478224
-0.201576799832539,-3.0837341899310187,-2.420689217357793,-6.293163618178279,6.964743952606361,-5.529426438307827,-6.789407993858388,2.146405030194372,7.945104161445183,0.6573601925624188,-0.1584738392143236,-2.3485259226805164,-3.83028937034158,0.9475377549896454,4.679695823930083,-3.030906297576415,2.5607713025490115,9.910798339577905,2.9103774745205366,-3.017540370275215,1.8553288758751796,-3.01982104575073,-5.212049716210746,5.9528697033633255,1.9569444878439637,-0.10134798891529273,3.3882951138688564,0.9217672462858468,-2.2505952614644915,-9.305623719896982,9.836486546926608,-0.43304335172933617
-0.04112924129300047,7.507920800862218,-9.151794121897186,-1.5444642757905598,-4.5605417199612726,-1.3275067339252045,-3.7493256377230737,-4.687245411687618,-5.780484835514378,-8.117062863797457,-0.10919762783997707,-3.790276263440496E-4,-2.97290779292082,0.6578357795924941,-5.505798737298734,-3.8107051256451725,0.6516348718364204,-0.12317406092309377,-3.437834409834844,-0.3474850721615475,0.5124518096464281,-3.6315567073288353,1.0368697653383254,-3.341996499632165,2.0636586171938873,-0.016011840201574968,2.037338029417216,-5.497549054510436,0.22189626773081259,-2.7966134278347865,-1.530198179161985,-0.1394708906010153
-0.0388962141727442,0.8795420458939929,-5.21175544855533,-0.21290626401225146,-3.359034542788774,-2.805505028569845,1.3928192371861123,1.0647679952121545,2.0811047438800614,-1.1869887583898193,-0.024925464299082285,7.572950107953539,3.1736145792887083,-0.7402900210632645,2.1238515894876664,0.31720287508908207,1.7689603768513882,2.8014245828090405,-4.610844592770098,0.5219621070341883,2.8758447866528027,1.9246498390755586,-0.9834645209371525,7.071347703879561,-1.9896496581774366,0.0076087740537709005,-1.84912516852063,-3.342486768178679,-2.68989988053152,-4.61679622074561,-3.4256498882649096,-0.005144893774593918
0.14951335202150826,3.3492801755624195,1.5993199327320373,1.6846628898036946,-1.7052545394901175,-1.8400251902823377,0.5186726437879942,2.2184561698055187,-2.194478617595674,3.3673884081350347,0.058714353404918686,-2.5046109585097858,-2.1984825394033605,-0.9055901932101501,-1.304403614950795,1.5571949810812715,-1.3578125240112695,1.0474833450804182,1.2856524525753532,1.210313364607643,-0.32356655641151183,-0.8173911440573151,0.0589882399315646,0.33141759483153616,4.053969922651893,0.08775787761560927,3.2159746128305575,-7.446904073007899,-1.6358813768689633,8.252074482374404,3.1809568766456477,0.10251198087911459
0.008149410266841023,-1.1618289385317222,-2.6129866514464357,-4.654089898948899,-3.7202143076249814,-3.977555088733317,0.41728025896659854,4.733318562475051,-0.14413207612025158,-9.257523787119581,-0.11529776202994575,-5.9759473814415625,7.909068692799025,-3.0950993682193544,4.267632103602435,3.2514648617701156,-1.5887755785968722,-8.07081053910091,-5.031250577812807,-2.17411396119402,-6.006971643015887,-3.8535674339225996,0.07119119369158718,4.974136011465278,-0.5943423700302097,-0.03235091523233975,-3.645627592909559,-7.638474677523091,-3.7332242272953926,-0.17395728356304332,-8.03815634501956,-0.22939214778644262
-0.14265741472838672,0.3789493286592259,-10.770728650254638,-5.218944847010688,-2.4006064051709997,2.8728890671512826,0.8142893614789094,-1.5760511703313416,-0.599440537290832,1.014148546170386,-0.13446169408072003,-1.6142235849316526,2.438859105867291,-2.2469213567516797,-4.250378484936135,2.6564275710686935,0.14351706461941285,-0.8812148960009476,-2.5677038289140666,3.5377685343910157,1.7168828800077949,-2.195272985865184,-0.12256381239244152,-8.514407609757797,-1.9851514765232772,-0.12717500346730096,-0.6719338952458662,-12.298701137569077,-4.752892931636807,1.351423507223855,-7.067576065311716,-0.16395877319100297
-0.39209441733536493,-9.966337794491267,1.4781549071310016,-13.00047879153331,-0.4646195095422813,-1.7426692296967805,-0.8613296388697265,-0.4994168414864777,-1.6262211375225224,-14.482399541134804,-0.4545440373904102,-2.758367262818324,-4.063621026296431,-0.17728751367255674,-2.1015445690640284,-0.5145162009686165,0.34594085437978567,-15.8839736536449,-6.172765156814096,-0.24007279478800192,2.370806224511225,-0.4989853902932177,-2.647194071567612,-6.7269931399952645,3.3320539950384567,-0.33938526355046583,-3.389950980292777,-4.298950437454978,2.527677467645827,-3.9477359180858667,-0.6336825032773038,-0.4482491614993083
-0.03980353113603682,-5.223544454121296,-0.40689667275709385,-5.703011277571076,0.34326141171031027,2.087906474019371,0.5241350912631739,-1.3169906507327866,-4.484001764342814,5.803600960418556,-0.040909855409679834,0.9778664253243406,2.573638287006633,0.16926563453055032,-2.7427313427754165,1.9356538793029978,-0.27259077496408807,-1.8140842431294615,4.655165007955952,-0.20905220989380716,-0.5169864221092855,-1.8341485121302439,4.1789416025306405,6.060592503815653,-6.365288126987168,-0.01679478839726883,-2.1855683211254395,-0.6293523183531011,-3.405754377387504,4.771862826695886,0.4406088690105712,0.04053913943980615
-0.010708916788404178,-6.404024067833578,0.2409297474615442,-4.722948639785799,6.163031133301081,-4.268291345531017,3.6811906400021845,0.7667846056250738,-3.92148218086411,-2.0653211723390985,0.004906008249081986,-5.109866667486598,-1.9431963405367736,1.0607674608714073,1.5713522377455293,-0.0902360723032182,-2.358890520437309,18.10091103500375,0.6629320694768446,-5.6746122595702335,1.5404433078422728,0.8721817990213433,0.8796333307018456,6.89624904482532,5.1835323092779095,0.02820202130326996,4.524220775781743,-5.968163626465726,-6.726727755350235,-2.667837976591865,-6.024981696246665,0.004534156685960068
0.08718647370143215,-1.204127688797229,5.942774243599526,2.3460040530531856,0.9546561775831951,0.06405850452977914,0.8229601793211617,-3.532730338172339,4.864065168309844,-1.16375710513275,0.19081772067603445,0.19211990093207104,1.133545179323801,1.3951633712384826,-0.36624604469936584,-1.8160782758219223,0.2939017693735714,1.3452075631568894,5.405200687162062,0.6496902424653119,2.3451517557420445,-1.826456838714787,1.4434690648508506,-1.868531433655878,2.294045013425284,0.06428564424080087,1.9606086065313644,5.465935352337516,0.7534378221132358,0.5434624215376515,-1.7861077733995134,0.4978213305877909
-0.0016897808648455761,-4.374466053391614,-3.4087081778854973,-6.660495541266761,-0.04004037267007622,0.8519463300153942,1.3979957483512504,3.274938612762824,0.7692966295009337,0.6163580363133638,-0.03189127317315866,0.4496811262749232,2.311183577635997,-0.14118727834569925,-0.20529431757441996,-0.14044336818997727,0.3697888171349454,-6.876547452341369,2.949604697158356,2.063907684359372,-0.7993132383403472,1.0933134566959088,-0.8271424906896908,-0.9492286662092935,-3.1465893195242125,-0.011257664493559368,4.449112753007276,-0.29073097892194394,1.0297224429524556,-0.9877530405607139,0.6804769305385447,-0.022839842318852558
-0.07820074507780385,2.036538481338787,3.4811384895925737,-1.661692166189839,2.3953422799299897,-0.09556607605956723,0.7539429656972755,-1.4972667310102858,2.5205995253272535,-2.618038039282874,-0.0765205173658657,-0.429086740117095,-2.6902031563276916,2.4316554078737047,0.04652916606942542,-0.5242411167980728,-1.1558559350817847,2.2210045964187475,1.9403401502702549,-1.5477262902421864,1.3783644302193294,2.5709625920823207,1.696678385564379,1.1091104560216953,0.3824979817214395,-0.022936950184074,-4.023408293689014,-2.2848231266170007,0.9466794436584277,5.445021932603528,0.22338883350980404,-0.11905419365767564
-0.024189238706597924,-2.419088267002574,1.302526617025254,4.428618746703795,0.058813561209225304,-0.8482454213011342,5.953142664771594,3.2984810096618293,-0.41634158386498354,-0.23580492891532465,0.06981470351483199,1.4250794514842757,3.132046112512734,1.7942553462407544,-2.5621496316697008,-0.2698914505788381,0.32967830313568885,6.04330306878665,3.778915573352901,-1.076709604985477,2.01847740407573,-2.4407431788229323,1.8430289896656928,3.484239479488276,0.5566331155349583,0.07275935718959978,0.1501531855630754,8.397722320852056,-1.2264076349022281,4.663706805001061,-0.8847480821464366,0.01927197879715677
-0.009220749834575116,-1.6154220363248997,-0.9741139438699701,0.34224038787245714,-2.1747650866410506,1.1464745984039468,1.9717459340911832,-2.9615566156595006,-0.9164735581806484,-1.034314261402702,-0.022373551679204417,-1.784173850169234,0.6431843038932725,-1.9511760142778292,-0.04842315149069315,-0.1900564580600841,-0.6287180056760449,-2.346818168497329,-0.5338178920254052,1.9401353982055738,-0.8518968522970054,-0.08645987118925834,-0.19357521684709145,2.4618509162474447,-1.1260591011627679,0.04652238705396045,-1.2936729174891708,-1.9736217622892862,-1.2494484624785185,-0.32803010731407106,6.61825915320303,0.07057209794354882
-0.37795345724177687,-2.8424500125312804,-1.979840450847907,-2.798227681718722,-0.39165726803419676,-1.3140031436649002,-3.4276691832617447,4.137115118378938,-2.3617586978559664,-4.948017177198552,-0.3444511444205476,-1.3888350006586954,-0.23651340541522814,1.4624351738212702,-1.3439336775642836,-0.5041940210835781,-1.375560831291432,-0.5627863195248342,-0.3217865417096122,-1.5246223366571543,-1.0888694014183937,-4.7522023297093385,1.2853942865925128,2.4299094796027805,-6.246701317164781,-0.3367663436314916,-2.6252657278744187,-5.616641285797818,-0.10990396481561339,-3.489277524112169,-0.8666526052064256,-0.6763333380508372
-0.016516777375307212,-0.5030934754386517,10.790410639527764,-1.9383361350301633,0.6361237520403794,-0.9456587283903813,-0.9791393875349136,2.8121355022616426,6.6361257536832525,-4.016731523616892,-0.04400337135716951,-2.5214840107384475,-0.19278762777398945,0.5612574875983608,-3.067232324687723,3.646472378982026,-0.8126988224137848,6.003531632060205,-0.15473995934204238,-2.491378140838438,-0.8197845541424374,-1.7718675762403358,-1.3154929685218846,-0.16032911248427267,0.22676119288719077,-0.02368766833378735,3.380608595561799,1.6167521643206435,2.7752597256399403,0.2206616882426302,3.327605944193494,-0.15532162222450013
-0.08921887415007645,0.024781381531450524,-0.015535540084114159,0.7786824641098604,2.826968778372924,-0.3828715128499213,-0.3343673703372114,1.0940321193205962,-0.48339669435956334,-3.64601953324722,-0.1574777999295303,-0.6146102400828526,-1.7510657324661831,0.45723771119456713,-2.5991534263932783,1.6795413454830657,0.320282712662717,-4.658896092066364,1.015222248080947,1.4801567728966905,-0.08957841197589501,-1.4663695784087252,0.13516870290455166,-3.693650076191284,0.5734244027599242,-0.15999124826226363,-1.9809426779358998,0.5913894466651493,1.498145093937261,1.439607319955781,-0.5594473206930856,-0.19878454541988014
-0.10144288893350588,-0.033904835731603855,2.407064733786072,-0.1137851574627636,-2.025201320914586,0.1917218661840994,-4.312517698314159,-0.8154386559681006,-1.48684280705596,1.5031061754852069,-0.12188205941703889,-0.7309043614276677,-0.6408572915617499,2.4894809018970245,-1.439462324769616,1.4744302535588922,-0.5800622676092284,-2.8070932354464837,0.6828057407917206,-0.34385081450620236,-2.6708580909861994,-0.06708801245110589,0.5564974216572561,-3.639351035676955,-3.644690302809193,-0.02914726145703915,1.3900090305117405,-2.7872762864085665,0.05336425544114695,3.017287906358118,-4.874505517033176,-0.0902246115951316
-0.02353451910667704,0.4060510075035113,0.6815209875356478,0.7250668620439105,0.02237357790138999,-0.04549337775793965,0.038110222922134035,4.340099627366383,1.29068544902384,-0.8221447928295044,-0.037905769813618616,-0.28495237393051515,0.4873580393725964,0.7054264519464448,-0.09264431254994229,-0.13909291448066752,0.015226557031523652,-1.3741128470621962,-1.0439088727110846,-0.14986392376956412,-0.1270519884603828,-0.36307569659436434,-0.08098392181455091,-5.049167006621823,-1.4945167134984219,0.004235519690766124,1.5803781007991045,-1.5694776808135484,-0.9351701385940299,0.03620745733529911,-0.7040025598503336,-0.13594130147052796
-0.0823132491083779,1.4013632065135293,0.8853690431444097,1.8094614896853627,1.1083342944762038,0.38475790053931,0.7792988658032369,0.6164106535361623,-1.8953793064047038,-2.79539438438868,-0.07850571685975753,-0.237202076812858,2.824229219658643,1.651288687179725,0.37373646471460703,2.0380243336670896,-0.2442961522364265,-0.24491638403160096,-1.7040136246683704,-3.4199806260065824,-0.7635512571722738,-0.5494431791995507,0.22111476389208282,-1.0475787343061602,-1.0382006969406286,-0.013809323671522579,-5.005321236094357,-1.6156210114162501,1.7469784942169073,0.8185906155767654,0.22535196990156375,-0.08944295103865069
0.030822183537891464,-0.8895009997000861,0.9654908830697787,-1.546993980366881,-0.8630403147891692,0.5241125288983788,0.06275865806133099,2.2577876833493873,-1.2671585351284247,0.7375690768899876,0.0383761652332027,0.4584914325718113,1.5571950361898101,0.044890212884685185,0.1953358418746718,0.04794260209357102,0.10834817320489563,-0.1259801427289215,0.4069593973694117,-0.3053481832053094,2.1474111588448994,2.3035007624018826,0.7058897266346451,6.297986428236287,0.36049183482715247,0.03373206960431922,0.07788598548216892,0.1092200778937297,1.8132282756029183,-0.29117196928341516,-0.22871805245668367,0.1639829810868892
-0.06309573603274843,-0.7698578359034562,0.6184818124792499,0.14076305262471853,1.406395324209345,-0.02858003929550058,-0.04189694475849974,0.1659867662463077,0.03233203390092048,-0.1700816286504043,-0.04490801467273471,-0.555007631108588,-1.3119197626903456,-0.17600377788471674,-0.10289099319153158,-0.11473276664213118,-0.16078048404393722,-0.3393223877700562,-0.17316299318173642,-0.1923136186502609,-0.2529378001104198,-0.11329139438023829,-0.24034761022049408,-0.9888103892621881,0.016723231541278673,-0.03434111521736061,-0.06704011012987669,-0.1222131694243346,0.3015627603240211,1.5344557662104645,-0.6203358005202241,-0.07728935971291329
-0.3519241535436645,-0.6428951090166243,-2.8885302952005176,-3.178390594401366,0.14367240216122076,-0.8135016998787609,-2.021239498972767,3.994336837853028,-1.6221427655882168,-0.443456486724298,-0.3164071639398574,-1.1094217212150856,-1.8856048818126478,0.957439532616092,-0.5499303247262316,-0.6704561466396882,-1.1092999457914083,-0.7010146634065724,-0.29221414396081175,-2.757742005806493,-0.4653708934642405,-3.6485439371194155,-1.647179257112399,-4.057385135333708,-4.488024617549674,-0.28438808720795183,1.1009723862055913,-2.119594136049733,-0.7931949789016474,-0.8519820816890905,0.23314495318069559,-0.5731638847142609
-0.035162815795037446,0.006701537024861123,2.6735957008490474,0.048948309162803634,-0.02774427742909628,-0.4316167307964644,-0.07514743617865362,0.18076259998438649,-0.020318532182058528,-1.7968586541430085,-0.05925791652609058,-0.3283439036017547,-0.0928553322371515,-0.03709110622970872,-0.06448023180735145,0.17318757205258725,-0.31128375913208245,0.2412752218659882,-0.07042581611515228,-0.04038641914350415,-0.1804364073983251,-0.10309308324184338,-0.4088280618221673,-0.019506790496097316,-0.3909251185584871,-0.04108881899250481,-1.1953728990414507,0.2851519879535872,0.3625838790100126,0.04601910820969556,-0.12843713376427274,-0.012261177410577395
0.044315273819495946,0.0794129887641568,-0.8650329357800908,0.9638160885856855,0.3906314748104194,0.13289687241695947,-0.6326899119829037,1.214082357451234,3.426573333842341,0.10458160428971805,0.05441863141215535,-0.2600387261428835,0.09442665945201269,0.4770994241707857,0.02319753311801903,-0.395678467616515,0.09880321857504909,0.8733170069787881,-0.6670750102616416,1.8832507621576238,-0.6214306247211313,-0.44508745230840996,1.1434180292372589,-0.2918628998679367,0.4278763211532157,-0.007413649708168432,-0.6987124740067984,0.5158543365086394,-0.9485351969394616,0.035465830984125125,-0.14580327619400635,0.014389143748762892
-0.05250765442073611,0.044448337171078454,1.81838337538078E-4,0.0825864457586403,-0.090397201424962,-0.19461741493161683,-0.3327915394774617,0.5044407109500589,-0.0320752054765133,-0.666707663071424,0.01720980337268053,0.024969876211928917,-0.035010610852723736,-0.07771750982250629,0.006170446551822025,-0.008813624558035684,0.033936348086785736,0.02086899449279086,-0.36251521661678154,-0.117596194636791,0.049570172815872574,-0.05827941699888162,-0.43055284778502567,-0.036990207827217084,0.06570589325640512,-0.025259314865340374,0.04974191336573763,-0.01765847902706388,0.005722313762483644,-0.01646932810763872,0.02016819826071749,-0.003297873046094831
-0.0168809882060776,0.10673410910791213,0.5796166074410952,-0.21246933016503528,-2.862722899289599,-0.04111420612248109,-1.2850576469153963,1.95251477803426,0.4223807136616074,0.7588784847639635,-0.009151405655356885,-0.35567409000753425,0.011954220975033458,0.17848226866653918,-0.21194550386609753,-0.5120357981245107,-0.0935024018785191,0.7500221968045651,6.0268143371965595,0.2174883596072858,0.4347104487579196,0.00822478186512936,-0.43492634309322864,0.7362646739782742,-0.7748259579451083,0.03393542748913533,-8.934757035387047,-1.648972131778677,0.042845765931531846,0.03317061783627291,-0.6262966542417291,0.02895986758034121
-0.5658717679887794,-3.644868792165448,-14.403173630245641,-19.426184202656188,-20.798323143688286,2.7515444876257167,4.667999792517658,-6.968291422699093,-0.05736579818507797,-21.794113294837523,-0.6535798471351101,0.7862577839044808,0.37731528533030895,-2.433834723036571,3.8774491989928612,-3.69392263134123,0.7013210337538932,-12.137670498690708,1.5064156549593257,3.415478865478516,3.255128758365101,0.15086869640662745,1.5634275619475602,-3.862330104237238,2.715501582922125,-0.6092806458605033,3.838303700177983,-5.642652215870797,-9.39820712396654,-7.810021136266217,0.9863213159739577,-0.1913437342581857
-0.18546283107065367
7.730964287388419
2.4117532934699333
2.5743002798321273
14.501223451531537
-3.1879616014244223
-4.997563486764248
4.0790894198584695
-6.004506068292068
-2.706096608570604
-0.21121943242431407
-6.734449885728965
-13.050657206142752
3.918304474194663
-7.990040567998758
-4.70776836324966
-6.073795854390556
5.23610403715609
-6.736940249161398
-8.813978991511762
-8.362575150098875
-8.003458594399572
-4.244372827938395
-5.486194753964258
-6.620622567516993
0.1383223306389348
-8.359826173109479
-5.405883401088646
1.729528219472805
3.2274139671749436
-9.780569126507269
-1.159667731688333