0.0032789363896904263,2.706889999429968,-2.669377658704866,1.0393952945361438,-0.11210800454101855,1.7255175146023025,0.6939180936537896,1.608258087444257,0.2121707463244678,0.7921974993487555,1.7590283289907056,0.789458933339914,3.213031304953385,-2.0716184303354717,2.01770438122523,-2.8629996930440913,3.7700008143377834,-0.901713003211745,2.865132550534231,0.9694997494261711,-2.955918348572166,-1.0215474122557104,2.84348023011651,1.4249843078913818,3.532708117330338,1.251909272468788,4.370733852142817,-1.3464487816198618,0.7713422431184805,-3.8026467804109707,-3.0295994882506165,-1.5005335778939932
2.9199682935830547,1.028935505092844,-1.9499147242019481,0.15833428082737872,-2.239684651667523,-1.8566693890261814,-1.939021405662352,-1.379744660186807,-4.540860719765606,-4.3325310620651205,-0.4752960038352366,0.4200564209173987,-0.4405448180135201,-4.293578608548415,-1.0997376104662986,-2.391059434597104,-3.2390365402730215,-4.028574000616773,-4.526172971855872,-4.74386095888696,-5.7332298283812,-2.0262494058456864,0.9933936766186618,-1.4726945908310014,-2.4176374610452007,-3.703665142807476,1.347382331103304,0.910666387280939,-2.5020220805765434,-3.0010876668270208,-4.257935838856682,-1.7310175039326172
-2.5968518083707544,-4.903461444817925,-0.09553483156391414,-0.6933406164525867,-2.250845823937758,-3.149975406933623,-2.503662979450509,-3.137904801917476,-5.429955018806951,-2.778436051497492,-0.9094330351418193,-4.245731926595066,-7.604029483513225,-5.60201830024385,-5.67930319442664,-5.97448750507776,-2.075585160171833,-2.3603255884054533,-3.739934230699514,-11.508824622373282,-7.51476499029268,-3.0867722859698534,-4.682532943467954,-2.039807345965723,-11.74429435487345,-5.316592108756686,-2.654014371621126,1.2169624867053148,-2.9670829510649517,-8.773301836520822,-1.1728102902124093,-1.5987736585668477
-0.8694957981370814,-4.064095089493205,-2.1338946806464643,0.43304328107680773,3.5176458081121673,-2.2884481922377296,-1.6332604636608652,1.6031964470183002,-7.055602823714327,-4.857279412611484,-0.7301055680610384,-3.296897530904148,-3.1498946046175638,-6.092331666894033,-2.7492471321305514,-3.344560554258586,2.2599082674827686,-3.561962996782101,-5.797500641822224,-1.5361304749752207,-3.074332505784372,-0.2334611183219616,-1.6273495158818139,-3.8721907340261503,-4.788029871351406,-8.7488999389504,-5.169046420078661,-2.2814553411338747,0.3874650001358238,-0.222052216645066,-0.09766621424692723,-2.6623331826082905
-3.5154966570235113,-2.024723971272124,3.3898780905011074,-3.633321038420762,0.7456681760830683,-3.914151127926584,-1.6176879692563628,-3.3650014052812645,-3.6483540699427137,0.10406060797433875,-3.8704991266932667,-0.3345934404113898,-3.144581311221927,-0.6553512423851704,-2.241003791191023,-3.417310642452624,-2.3594719979437135,-0.5054889664222751,-5.9564060842477184,1.0806454511990997,-3.0028660456162384,-2.858306530271894,-3.528296966850831,-3.6043168473466483,-7.663561618098858,-1.2408066017532808,-1.998132117630893,-1.4456789726592811,-0.21454796268734028,-0.18013773051196652,0.26980653308159885,-2.9260846990636447
-2.379151187286383,-0.5604539149479413,-5.062645248981198,-2.8590878642299717,-0.8376814921117958,-2.4621196895317286,-1.2784512005694815,0.5984545923335014,-8.257255090523106,1.0264817088750118,1.141323090078573,-2.7047875596732327,-5.871924064464668,-2.869150759369243,-1.1998445817693573,-7.007562246711531,-1.8011316953426595,-2.461349297184628,-1.101521077961678,-2.931585366265746,-6.703241680038704,0.48542530916088705,-1.9275454483720782,-5.2193650666884945,-5.220071788959468,-6.617531419326247,-0.9962824948118076,-4.605505231099332,-3.4123015441041566,-0.7095947475547415,-2.4041714429089276,-5.379315889956802
0.11327291871215525,-4.93848781303781,1.1122632854775694,-3.3633244725130935,-2.647983950301787,-2.1709765254362443,-3.0146891963776463,0.47955295482213744,-1.3200227449974806,-4.443071912826301,3.813934396170664,-3.8726799747794334,0.786121683827777,-1.8042418472841506,-4.677651684290254,-5.310988024633706,-2.412790030420257,-1.2112999307473145,-0.8563524673611449,-4.078183073759712,-5.58605911276157,-3.095699267389206,-4.677926109855479,-1.5393532829381598,-7.392637446230116,-4.285607234014682,-0.9629532867696418,-2.0465388707044236,1.3290989636062756,0.720888166983449,-2.097505024207091,-2.709013811421532
-3.157776440141593,0.3167162875679129,0.7714216865302685,0.3381591057952448,-3.7933739056114293,-0.6581254530670577,5.354286581150441,2.446401512181802,2.370922052317031,1.276989162392619,2.3977211113546226,-2.022380146853234,1.9599969837900695,-0.019661414937639482,1.335188127699872,-0.4610966109911713,10.60763472899724,3.7143663268055334,0.15672599562822948,-3.526561696530011,-7.695146657352046,-0.5976226035190144,5.099890919008351,6.88054265608413,-1.6943860885941269,4.216087401537217,0.8617407039503044,0.81627305250448,0.14233654111549396,6.37874956194771,-2.477279330451588,-1.39180614706831
0.6644628583287707,-1.3009644770777469,2.4189814705764388,-2.3696804949219974,-2.498378540406773,-0.13417574073064112,-1.8044972431778934,-1.0313488228963368,-3.9395945269132118,0.1786644424829442,3.251782298664638,-2.376851582062718,-1.7779196868807232,2.569195419291224,-0.46337421642374066,-3.46118407569866,-3.473242357820806,2.8278469197004616,2.624022918401303,-2.5119729970311244,-0.5016772478149605,0.7773723025004832,3.8447584801202166,0.3883433239852076,-6.233471187967836,-6.815376066935311,-0.4656400047824735,3.7287230683160666,0.9655937769430692,0.6222100915471335,5.841787360325741,0.31517089903820733
-3.2960595810903306,-6.82665494370935,0.9345915150435306,-1.4587170190076466,-0.5983254819112201,-5.185838912102783,-1.7321565077976593,-1.262162152747624,-14.14932253646437,-7.832190001607174,-2.607435040831592,-4.21900329291589,-5.683092413401259,-8.199047203656503,-4.433560635949922,-5.339630461370816,-11.65291685284398,-4.50197770672396,-2.7165377083090236,-1.8537666304534042,-0.8541103841511853,-1.316885125229825,-10.109266229467254,-7.231567740654813,-15.020434579737206,-13.367542931813963,-3.0653393253066255,-2.999986692723089,-1.064763062895959,-1.3806419841914304,-1.9851054619240454,-2.37150347006826
-3.061710507398257,-1.397738932443884,3.2175216381007434,-0.009417427659322889,-1.3503394212531104,-2.340970026588851,2.10310677862287,1.3408573877521628,-0.4339001282193711,2.6049467712967695,-5.627164723207222,-0.0736811085729791,-4.737846722641214,-2.212222495338848,-4.5372232273205375,-2.2932273111653867,-0.5433318717040626,7.279271644344686,5.300313058216948,1.1736635617051683,1.5873937184740294,-2.7139445241167537,-3.261795714166603,4.020858625030218,3.4667156267440955,3.3384569676556297,-3.2770294701088183,3.110696538538434,0.652366865516494,3.3667324056046426,-4.384141183712978,0.49848646077998077
-0.8749195389016997,9.206750518283867,2.420167750314284,1.5159696252071178,-2.9896982185002146,2.0545981273558036,2.0195007022939477,-2.5152012132975137,0.8420478584545166,3.0860922781187314,-8.191672084371675,3.2634107228226017,4.986946984835164,5.004141807041287,7.804788600259582,0.7296997619464775,-3.616322512452852,-4.700137181597014,-2.0647585629037892,2.8214151075258393,-3.810882315481022,1.706968347145637,0.5999653256033364,8.334718800147105,0.3312293437481859,7.167263543111012,1.3533028835939014,0.4095226735148509,0.33623561110738087,-3.034416231194597,1.2656651958290646,2.8088406055944466
-1.3756993601680576,-1.5880778519542351,-3.6231135233486715,-2.279320771026975,-0.6740844485133427,-2.585269911092992,-1.908526580283861,-4.377834978742719,-2.396362508159113,-2.1458084731911438,3.993271849732522,-2.1841045638527588,-5.545935065674667,-6.853141810736513,-4.6877349258211085,-8.699533493213865,-4.050549121006179,-6.021266905702774,-2.68727746852202,-3.1018359258450356,-0.7031625399965327,-5.836916861931244,-4.138265420241798,1.0038511781596988,-5.321218133942916,-8.884916296703905,-3.8856338476964303,-0.6529192648936208,-4.833028738661794,-1.2983885746186339,-1.6419287893827568,-0.4133475997369714
0.9510747650841506,0.03989709069482665,-2.15403844810114,-2.7187473916457017,-4.331641481918264,-0.4711521919933191,2.679549781514455,-2.537949363974585,-4.257741111083051,5.666412484766238,2.206413597400684,-2.5841259440722055,9.317954020327278,-0.45775059064330637,1.6190782580713416,-4.149858652686774,1.472178522464098,2.564129032778748,1.2542642083898978,-11.549991734807987,-0.9773217762077534,-2.8372140315108605,-0.0963232395621918,2.8019358310873312,5.0196536300624635,5.652326470759253,-2.411063876046141,-4.16389723281564,-1.096152738036148,-3.454794661030793,1.638125461391496,1.1127783000114586
0.4607968881623847,-2.8083839289301666,-5.100171813597357,1.7183701496615502,-1.4298201334549334,-1.726481862153618,-4.075106439551309,2.012936335221635,-4.998849268413984,-3.07450139714548,-0.48856709156924405,-4.053411002164266,-7.676364807052674,-6.245938375876617,-5.465108149900973,-2.602480628648364,0.36757930072256007,-4.576520331326123,-2.370943226951424,1.8493681197778595,-8.063248916908176,0.9535562563937119,-0.5612034446650402,-0.522868231218012,-0.14944879602042563,-6.785779918200183,0.8240181521288806,0.0877747317562824,-2.9346215264129967,-7.314396791719216,1.8336634798654834,0.5323817123297991
2.9552453951506155,1.6456785987596727,1.2336625648229795,0.6602066719129891,6.632836021903942,0.5760172663715779,-0.3573763609503441,2.118835599764465,7.471335570214189,4.617811435629711,4.382191077836567,2.9523114791752465,1.983879040854314,2.7025971995288263,7.399226502664796,0.5122518247150118,6.583487136285532,-0.3462583052849725,4.609049076075666,4.090757097961485,-4.833301871334,-1.7680534372293828,-1.6774254582502968,0.2316714488847006,2.6412866847136076,5.230794212489629,2.264656352093725,-4.672458554587923,5.095364887061536,0.6616731501680462,-1.245176823889413,-0.03817421980749552
-1.3400097081933555,-2.6371701631342512,-3.26814829552735,-2.5229244013473777,-4.223444083470738,-1.8054472518039513,-1.700340618618821,-0.3454222896194462,-6.010539601699376,-3.5052379796224837,-3.796858251028455,-4.392701122172675,-5.2389177539699485,-2.114110392295932,-3.0930277468084575,-5.7059834275933605,-5.191891726417884,-1.3435275710956207,-8.39763674060114,-0.48896417052300223,1.751389429333499,2.769490579721464,-7.622916048702792,-1.2677439483814514,-1.0918339070537366,-11.523751415247942,-4.026962287520877,-4.8368137792776595,-3.8371298763213906,-5.910446977420734,-4.159893586094724,-1.1810894303712847
2.4218400975367143,1.0463977505220017,1.7830583782354732,0.46628741733699436,5.690825884193018,-1.4642689885617686,1.8629755556390404,1.7782023781044223,-5.586727296261665,-3.206829141752384,-4.228254072796886,0.07893009993388432,-0.045879896633700006,-5.5698107695017365,-3.635208239888767,0.19655123707558664,-5.41294612530412,3.430854777025721,0.3384521739427117,9.799853249484054,-0.4818286729121692,3.5055495090639077,1.6038020279970286,-1.8689970028714997,-1.1487071704779555,-8.393412731882519,0.21851840102443043,-3.1929851158660028,1.7809757464973275,2.0751221863150113,-4.482014637335981,1.3204517089779781
-2.6617480632028383,-3.050965100166566,-5.9837107255879705,-0.5064104695877848,-0.4336170444274168,3.309130319718694,-3.678258097239365,-0.2032798127996552,-5.460200486582184,-1.2897969905795716,0.6781128151736285,-4.596725603266354,1.0922007922396275,-7.5012791987468175,-1.3408614792980116,-1.7501867944029914,-2.7756394941819593,1.2407639455896373,-0.8966577438560462,-7.156349278503826,0.6587474294804218,-2.063551154012226,4.512116750292369,-0.08523799827657716,-0.5806508617678646,-5.204369193086946,-4.624701855779658,-1.8723578434381412,-1.5614018233246578,-4.453579336281644,-0.6170371213017088,-1.82084040350406
0.7870594463597572,-2.285008230969257,-1.9237163392724415,-2.742233212961975,-2.6693019406724203,-0.8217654604016909,-0.2219348985368681,-0.18600786515253934,-7.271185128867562,-6.5964784008562845,-5.239660118570504,-1.632600246254425,1.7044508688071063,-3.067785187558322,1.7634229256856522,2.3364313706814093,-5.209697299443688,6.036554479660696,-0.41977563842596255,-2.532386777364531,5.802091991693299,2.0240209228387234,-0.09581211819679716,-3.4359289189045845,-6.881816912295784,-4.459739153793754,0.9922495302652726,-0.4165629122878145,-3.122694898084952,10.326693692695033,4.228787306811912,2.231634632569469
-2.7186859590178094,-5.025899806212452,-2.048762253836197,-0.25489918134649264,-2.8633029068036713,1.35442186061623,-1.2507699879998484,0.7652360847408349,-6.2408744395228615,-3.6023649145717385,6.607836363011468,-1.4604373215407194,-7.171218114671179,-4.92612936228338,-5.934939627228855,-8.762797161564794,-5.85105366568592,-3.78803491041773,-0.36408939970862086,-5.8254354972082565,-2.7301298728464434,-0.27089900369002956,-2.9202270386544464,2.2620052061639573,-2.0809073078875318,-5.3326225901803594,-4.6339166500749345,-2.4918075463635074,0.12006415708279086,2.1550679878275787,-1.0663018317314574,-1.4654012628684032
0.3709294539473764,-3.4517583417510327,-4.182104161918979,-1.8506521864283714,-1.1036223680533694,-0.0579471957976553,0.3939781110241172,-0.555040058805814,-2.4084848593381842,2.9309494569547825,-4.681912425857795,-1.8928414395497906,-3.3277692873676585,1.0212508650399499,-4.3632658596120875,1.6644569754814273,-4.979642866543142,1.795983774656559,-0.33306081812322585,-5.8899906077681035,-2.127084932846293,0.4915377447471248,3.9200832418943556,1.0649126899140569,0.4790050381090652,-3.530931215794036,-8.966662978778187,0.45747588008582746,-1.0054989183629597,-1.8074425043032734,-5.576617114110359,-7.225456400786592
-1.684909566047387,-5.836287184115566,-2.318520638891428,-2.838727757186955,-3.262158194668554,-0.6870398605381486,-0.493151517065222,-1.8235700124257206,-3.9800666166313206,1.157859299191934,-3.612669519183509,-1.6382745913661263,-0.9196783838485457,-2.03512071907074,0.07949530464244592,1.002092535874421,-10.445867681276436,0.7930023485486953,-0.7701602272435188,-2.6400902728848603,1.586537367466657,0.2694811714254071,0.02525630144589724,-1.1741893403867945,-12.5173740664129,-6.574133344664216,0.28677302046032294,-4.1284818330120645,-6.248527717833276,-1.7600269397692654,2.359736909297782,-1.9175600706105724
-1.678148618736476,-0.7103523676673674,0.36147889257430516,-1.7960296029911185,0.8964469449593517,-0.16262266740673803,-1.1001993295466195,-2.281845785887268,-0.879824320522957,-3.330564857161869,-5.959895446197843,1.1447718379057135,-3.4735363556556655,-5.980438041276286,2.673197130466426,-4.4639076340743005,6.410187023367775,-2.1557708892167065,-0.49585417999339804,-1.855819918841485,-2.741954413280317,-2.7066803888311064,0.3565844913264526,-4.124598611600616,1.278849952509302,-3.290961435437886,-2.2998020692223156,-0.24938982386421946,1.700962558434644,-2.6456790548981766,-1.7431911054834581,-0.7532591982136371
-2.3277585101082545,-4.112101219378069,-4.99842971961375,-3.107908386955745,-2.1737911433160115,-1.6073645935382146,-3.568068808760871,-1.3239734898193427,-6.231260926456439,-3.8016149908608345,7.24639933656188,-3.978166461712303,-2.485799208627796,-5.086137698798961,-3.0831176545348735,-2.326762309679312,-3.0689224081543407,-2.569912011278653,-4.952192552729939,-9.979849757149685,-3.8179853607871843,-1.052315907350068,-3.230102429760922,-0.9706861325192476,-4.8982268576646675,-4.5534175717814,-2.2331061743281206,-3.532312447389777,-1.3051437846109581,-0.0903519423423779,-1.451661355170442,-3.146472713737089
2.23380290435613,-0.20059905251419258,-1.8723077744068852,-2.655134012258961,1.7839518068862956,-4.7687249611042715,-0.8938766072351396,-2.6079097073542483,-7.313600334011767,-3.249695318951605,3.364762217883672,3.286122317463103,6.492793598919193,-1.8685838376019777,1.1454024954542488,-0.5011254865147474,9.281911373595335,4.075830433035478,5.654603714859895,-5.8982934700145115,-4.306149608254696,3.4716538501889342,0.030694561779017585,-1.365686919527331,-2.522242021534784,-2.6111755060620134,-3.5454118797779377,0.8761843632948757,1.310042085015903,-3.2368358729635025,6.463020495899642,0.10613257524922418
-2.4195531040859115,1.4749626587459146,2.4636642584976407,-4.486804984771609,-4.110689524160926,-1.9320541817470673,-0.9954914412676978,3.1897496160764067,0.9048369865633898,2.0548965286466534,-0.6704591595200852,1.6004146799156151,-8.135243293300276,-2.0006923198019755,-1.4296362181138584,-2.896672164514397,0.5171487120551995,4.927927574633553,-4.662592065622262,-1.2909149936414697,2.155796049626445,-4.970781495799283,-8.050867770079009,-0.69251916227582,-1.9529104352598372,-9.737020957778993,-5.725083327182062,-0.8841201741392448,-3.4671603819299874,-0.907749014996979,-0.2941388103486376,-1.3116773911844881
-0.7149919216101374,10.183363910345507,2.2348644726135105,0.33262680941583944,-0.4083466970003156,-3.582106021913273,0.49385643482241015,0.06575702904945362,-5.970761557523397,-3.1929819538024695,-1.0318928326494363,-0.09870689140785124,3.7069501917841405,5.8357969277383335,-2.2373223303146283,-1.5912631395405563,4.509582375844539,-2.942134404894353,-3.6127107664332923,3.347217971280045,0.27168046071144136,-1.775393218543544,3.754629095457252,2.0075196335031786,-0.3525929547379006,0.6587867946403814,-2.3395204296306553,-1.5623948354009842,-1.5039704499805318,2.7326628678394305,3.091485758243174,1.4936171702506444
-3.421605094714392,-6.710267467985799,-4.107410311926426,1.7428277884115204,1.5368916895451126,6.699762635214942,-1.0802548909929832,-0.2228535925985406,3.061454478493112,-1.0256043944184787,-8.026964125489604,-1.589432835486599,2.95257429676696,1.0843298493499418,5.34465537600549,2.9249759053569253,-9.665386234567183,-4.630720569873856,-0.6009750502490006,-0.13742230391608548,-6.144590762699032,-2.0341862304186886,-4.295539165684209,-8.804903739944898,-3.0533680620398997,-0.9844646127532821,-3.427021737904672,1.3255747470528083,0.9704396744080964,-7.756685412513189,0.012687818913841424,-3.639536782005149
-1.8249343037943486,-0.217808523643886,0.43406419545253694,1.2033293607323077,-3.4993608974775383,0.8183089468357528,2.5421530389077076,-1.0600167406034529,2.233468036749944,-1.024431916914096,-0.29293124658038866,0.5069837532840974,-2.10787576680455,-1.0950743843658253,-5.662536505135888,2.934442433094912,-4.729992748889446,1.481865720266177,1.6824816337707356,-3.3160402519658847,-4.322301929879515,2.309290416594956,3.6308384613403124,-4.269433409150392,3.179874210557717,5.027112942285218,1.2487440213850352,-3.1202766945719764,5.245642511084073,3.2995092551023415,-4.026860553455622,8.827220540511753
0.8000446089096892,-3.5616973976092865,-0.1963913731348491,-2.267375325704516,1.5196643312083047,1.0209932030864388,-1.5309941904616389,1.6580746919797085,-3.5679738519518165,-10.088961193443062,2.73978389773825,-5.319038829608086,-2.060089302097847,-5.8080931815384895,-3.3129874852466124,-2.718845692806079,2.696286588516533,-2.554305151681013,-0.6838112181710323,1.437952865222597,-2.7142741375548045,0.02303012861393979,-6.173370229564408,-9.787200280138153,-4.191129408805762,-9.662243518658004,-6.2282800751412415,-3.601817619977277,-4.61919596813126,1.7761918363633489,-2.1492218721004908,-4.05499913981241
3.074775191587464,1.0638759240667084,0.6338995460579246,1.7928528656623088,0.0506366574845263,-0.09251821953966916,-0.3139658228906905,-0.8636335613811265,2.998687911115481,2.693161054006303,-4.605224717447988,3.0688349701678836,-0.10008798874782802,-1.0122520254008562,4.6216870923721425,-5.24582363062365,5.472187462920411,-3.192368831742825,-5.717882488270628,2.851111376193331,-4.917324934873298,1.6374682640708071,4.578315121677791,5.163728686158352,-5.045230653151141,6.895398394748406,-2.7336540742457127,2.876519379521744,-1.860083049208356,-4.511697309436294,-2.935571009328094,-1.156704641225698
-2.979478023043805,1.5077498388401416,-2.9899071056595417,0.25413399041763063,-2.5287996807018955,-0.6711757132024618,1.5899067059500143,-2.1657792864341117,0.024814942950256515,-0.5967272069148785,0.8470758417503402,-3.3959722316355188,-2.7088950038168287,-3.449868808174378,-0.703438863234826,-2.6439091231342555,0.036188374215438815,-3.4393501638579687,-0.5533451499668282,-4.359394399831996,0.018169917065711524,-0.6492375423768452,-7.1669955276986625,-2.538880471278644,-2.8449869669280954,-6.395185495281796,-2.883606508990713,1.7697004381788177,2.869570249973288,-1.9663996787423006,-3.238257642247427,-1.211071926270786
-0.8148574664483742,-0.5460613309317852,-0.885961484910924,0.5374363443388217,-3.5299090033517215,-3.0171200805936036,2.9275050732133336,-1.2935794529908706,-3.2288486568456354,-0.5442720744109941,-6.291245443509711,-0.8943749093742355,-10.022515458386115,-3.881466202029729,4.641540082555536,4.30374296790524,0.9480168886198123,-4.573597956959693,1.7206329713987722,-4.974492274440997,-1.7182644524689155,-1.764575536367985,1.8610529690084754,-2.6700073077748407,-3.5177903424311787,-0.9928712350868001,6.373279835187288,-3.463054074982105,-0.14690309888027342,-2.5283393928590883,-4.779000070324411,-4.500694493887052
4.135142392245945,1.295190924347106,-2.9995374809086814,0.03223836388561262,-2.797874516882245,-5.749626067350304,0.9461518498252814,-0.039110473260521805,1.6290834364786988,-2.080309245689943,-1.919298350448797,3.0796287664870983,-3.500969995284965,3.066175441968153,3.2892937702620992,-5.5099861170545035,-4.611034855431717,0.6549482655056521,-2.902263546746513,-4.332937719985008,-1.4177540739286167,-2.066982134978303,4.02586535082392,-2.6238479966116426,4.441537072707824,-2.915244972354374,-3.880907194392826,-3.11658708511614,1.1700412418717736,-0.2579693848010329,-1.0381639589099094,2.573204115132483
-4.7594810720125205,6.020097280068554,-2.66195761205173,-5.56503506104302,-4.284722928188922,4.787587302105539,0.7723187864846685,-2.129073933694498,-3.728421035961308,3.946995079465954,-9.400688801737791,1.5966632901743167,-3.219517069949867,-1.424513532726063,-13.196987330033952,-3.3486023737195936,-11.909323559123564,-6.044412551933447,1.6907517730332629,0.6634692907962909,-3.8747253885784367,1.0719505056411296,-4.124534107132194,-17.238192039165035,1.8975583168109158,3.5474142959147223,-3.915120819062784,-2.978084782673131,-6.541394715412635,-1.0936283524750732,-2.6440136630790225,-4.79736239397626
2.0986220375051157,-3.190433283648027,-5.570838894954248,2.0554343385727516,1.7975259704639441,-6.640112788134696,-3.578470616367973,-1.5116584811419027,-3.0354017912434026,-3.689930987991925,-10.433353102578238,-3.4021753874805514,-6.681473835862262,-1.7342343408088448,-10.038346334871603,-12.498248364922434,-4.726522037131574,-7.013811291038279,-4.683710271696762,0.2942583230767274,-5.433190159687371,-2.1776745688290595,-4.732616601038593,-3.939279507935858,-1.3389414320722286,1.6939966430697082,-0.9656506027323599,-4.192158226237077,1.0425649999940154,-4.154678486491937,-0.847115558993283,-9.597790457059975
-2.697854358833883,-6.717974468109716,0.7682911418354044,-3.158065832684791,-2.30967549420319,-3.612090435261752,0.7239452850384128,-1.6912588102541004,1.4243128614272376,-1.5309067969285923,-0.6488185705908011,0.5263540835889496,3.298758850150504,-4.096542390138685,1.2960394844500627,3.645322114177989,-3.8594367965475755,0.8773316411736845,-2.978193992576021,-0.11560410057249892,0.6435208056033406,0.31039065978082675,-7.222351388620012,5.179993138002516,5.5274293429821135,6.6919877703938315,-1.6305302641428094,-2.5564426215950244,-2.900786189478051,2.6204189633674164,-0.9121732417086394,5.4069603030625
-0.1537453162815779,-1.8381789515043392,1.3929125306997143,-0.5224961164455048,-0.3143111690853275,-0.9025680320714516,-1.1226500908223846,-1.5769562784209363,3.4008600554849817,0.013184266100668115,-6.662260828650625,-3.7201144449006724,-4.044345452554511,-1.120242432272978,1.7993211398964344,-0.5538467878700105,-0.3496944242298069,-1.6190531670859525,-1.001641311817984,0.5209538662246092,3.459955984822796,-2.668289320703181,-3.6299497759177535,-3.2749863012177154,-2.3508948671530128,8.522428267195078,-4.633298253005433,-2.323138205365191,-2.586563240095255,-5.259172325155318,-1.78671796554397,-4.282350414115911
-2.8233128411317434,4.95875497871217,4.416898816497484,2.2331702604502035,-0.2994924098212385,-0.487480190562442,-1.2031046384200816,-1.0660607239457711,-3.293641623014221,3.887086875950149,6.543707403194675,4.4424208227227195,3.6573486628174092,-2.1528444303666747,8.197086801266924,1.164410659724085,-6.83757191588161,0.6527612051085654,-0.15131261464021545,-3.3191434916878597,2.810560420983563,-0.6896416375390402,-2.6166772769915903,-4.916877978399232,10.089869464585046,3.510694864268172,-0.1674821978519833,-4.932881506904199,0.7532668084472764,1.5209963608521322,-1.332371775106862,1.5086128479909253
1.2542692347118274,1.701180228098764,-0.5474398406248684,1.5368822324934233,1.8725223633081678,0.09875116716058613,1.0681162739350785,-1.5153051579872825,-1.15446184091924,2.9443020407598888,4.181260002125718,0.5649057369232037,14.687422645679868,-3.443603392710475,-1.6828830946108009,-0.5085502817366531,0.9916340398339932,-0.7854024256109912,-0.5653636775558052,4.224026044945093,2.8819602826940782,-3.4986806469940532,3.3033577651805093,3.812353286053421,1.9582713345697758,-0.8932687814527412,6.790087476806716,0.7149318155039434,-1.4206320835104411,0.12142276755038996,4.376259905886975,3.3439050868147073
-2.4026162149999397,2.544890381914222,2.615261956146572,-0.6916497452615955,0.3160876218566395,12.523495646607717,1.9580966724694817,-0.7823212202401764,-8.733426267849387,-0.9792170709076378,0.08183231065163905,0.564931420936622,1.5610731117837182,-0.8426197152137216,-3.5453692677146598,0.7580519565333267,-10.597473883423527,2.1809417276626752,-1.9165813572364427,-4.247830633246317,1.4668666670939814,1.5904971703358668,-3.73544448667916,-6.143478351678155,1.9815764137707006,3.806518576145203,-0.06901126880228295,2.348503659553286,-6.024400876866873,-1.1659650771182921,-3.940338082195179,-4.6278361833680615
-4.384145332733939,-8.005249800626531,1.3234477898909454,0.34599149485784164,-0.5062976540609988,-5.627821294502436,-1.0100440540900306,-0.6272935801975587,-1.1646803197539621,-1.339968392740188,0.0929802522057374,2.0046579457638636,-5.4565000820937675,5.026410068468007,0.4700371043603546,0.3468651209460293,6.061624311726656,0.6141720667243596,-1.6836161021742917,-4.307117019701288,0.6512672054882452,-0.7275002096176204,-1.9118499217661287,5.128772194332057,2.172165268935243,17.334614974051053,-1.7187157231767296,-3.6612564865448576,0.45217935595665815,5.009061381012412,-1.1587747107421202,-0.9079673233332265
-1.2125236305118652,-0.8096428821301489,2.3493610387110326,2.2717231130738305,-3.791938335151493,-3.930675071622379,-2.02834971185437,0.7686656652327682,9.446141029968617,-4.236119171776882,3.41382170891972,-1.5232394219348724,1.80601902406592,3.333799629308476,-3.021271697603031,-3.926392964875556,12.764847977209326,-3.592934853590381,-2.1537697692069324,-1.5565458430591854,4.23282779715482,-1.3175442304175102,-0.6110947966184335,3.0786774554934992,6.745099178227967,10.724745408643592,-3.8243107450863896,-2.7408897557942193,-0.07184540721415843,-7.167109413248351,-2.404516773901876,1.5406936704726213
4.998636503615972,1.066418564940591,-0.770281705349078,-2.6893222533469716,0.78152924556989,-1.01386055923209,-0.015717823287326228,-1.1859539012559697,7.74267080610991,-1.4212216776662625,-2.7877169948246525,-2.556835970344565,0.22130377723423675,8.266674409629868,2.6222077710867215,0.8307101040867878,-3.9210319999970227,2.045138209978105,3.0191006144875776,8.384837875619466,3.1875197867588376,-2.158382413150504,4.852085052362479,2.5864080475492846,9.550695572858247,7.7451061764739,3.9415921883816885,0.38445264145359026,-0.7273749284651094,0.016486135808272896,-0.26618082933943477,-1.0381650926289896
-3.2287524403632655,-3.7677902101578624,-2.020428717013404,-4.135498503149369,-4.846925499757062,-2.941388105202465,-3.007893287055918,-3.2264397023615743,9.064875252293966,-3.3964194485009744,-5.358470069741997,-6.566948079233792,-2.682398879098579,-0.0803835350588045,-1.297863748837129,5.048676021063846,4.015525736593724,-1.4613585477748965,-3.177421412075317,-0.4025058283079258,-0.6394403305158248,-1.1308620299264218,8.424885747093041,-9.379103430240507,15.222903316902611,-1.1384831683966565,-2.7743946594430238,1.075118484061997,-1.3647581314291244,-1.867727749516662,-0.5085308035460011,-0.8033727063183779
0.9903082229181134,12.065105043311712,-4.991662211713982,3.3480346545518396,1.6773146458405315,0.9803622405126223,0.4171887290278119,-1.2912594954085421,10.955960713192392,3.194203188656398,-6.561616823720274,-1.1615161786453243,0.8050946056616397,3.851272552362467,-1.2925689856316027,-3.1237132754174093,-9.39221570077297,-0.9597820161206716,-0.8799347458231799,6.090049247064402,2.896255341692909,-2.913482854014023,-4.744108869276566,2.9123729653485126,15.08345876023759,-0.1700944576147504,-3.077625682746821,1.1851811191063388,1.1623528718638005,-3.005671002011286,1.5523681973309418,-1.4103170549579818
0.9917817037997131,-1.9257864438498575,0.31225863691679745,6.635465998833014,2.5738124948561416,-0.1368996371791017,0.5780151913574165,-0.07828491714064287,4.327327570385726,0.7434700333916353,6.0892429148476515,0.6445522605536229,-0.3223156922795544,6.257454936366542,-8.547101302449374,7.699427914644912,8.609069132599885,3.402577684668922,6.976404646534366,3.294037818604027,-0.048690130112853336,0.6576879511010517,4.617797132732034,4.242384313339661,2.380039562318704,2.8933804993026517,-1.0833811227995556,0.8206761593599723,5.980245519580128,-0.5524607068597283,3.4372297978984228,5.516033903931856
-0.8819775664472477,-5.475709286483171,-5.071299343013613,-2.8983264066578642,1.176276455288196,-5.69676825183946,-0.2239952371680916,2.5261615676084137,0.7759140281407252,1.0940942307654056,6.951942999579138,0.18461183496190928,-11.14367201554733,0.07839132569756703,1.9353320902233742,-0.45554341229274414,-3.8010193093202056,0.75982601360677,2.265563700069309,-9.18689394671342,1.8709819022777525,0.9786724727557917,0.8681578903966675,-0.6196366311901157,-3.1504297833524584,0.7728100047070767,-3.547533356071944,1.5689362123944366,5.30856484854479,8.208290087871415,-0.47552779225625663,0.2579933063996705
-0.8336920582931371,-2.4453850978436704,-4.026947491613442,-3.3564574316413234,-2.9611301476852554,-4.478752348698426,-1.6032631706596339,-1.5069439920601218,3.0539260642407213,-3.073106960748529,5.784593152263722,1.5299114026382747,4.387647221108626,-1.5529235110030575,2.752197849728226,7.445024176814174,6.985181143768482,-4.2722231269046365,-5.233423844423021,-5.374544217661149,7.410151065212527,-3.1198781082700706,-5.491135966832626,-1.535956282935417,-4.234428432465364,11.903062246088815,-7.12500382524188,-4.870989586618627,4.961575178411399,-6.596349861908727,5.132547349869951,-0.5761693137543289
2.3468973173415515,3.7642948835376173,-1.3870918923626117,1.2348991417500805,-2.1201577517121053,-1.4675779721413895,-1.3895624852495467,0.7151385543975037,7.181139505778216,1.3991704120935167,0.8597160906374716,6.5591225403748625,1.3635191232333244,12.129440498182964,5.170609199497645,14.7419552229521,0.09165694853804106,1.8000808427068435,-2.867195899147447,-2.4048212102578312,10.464029312308847,-1.561172217207143,-1.437844123466246,-5.049578775075062,-0.4098499864491552,6.252068649847797,-3.0313566137955332,5.678632779289463,-0.3911864087503544,-3.3786744348018627,-1.5602034769069535,1.0755924758294793
-2.211411756337609,-3.409175241447149,4.226070779203423,1.02782355332017,-2.8453120251973925,4.8523958768852555,-1.369475341461984,1.000440667870145,6.1367740537847935,16.068350379588132,10.653984937768039,0.7384045328623864,-5.275005980034631,11.278521403433107,-0.19959385260009235,2.675970183305805,0.45724370913424617,-1.6641233427916686,-8.296813474497146,6.172029835209791,-2.2953837742633048,2.140756912180036,1.1071277868574119,-2.6788195541373794,0.8776040693997332,1.8781806330565474,6.742758138140556,1.961325574698534,-0.5119566939502245,-3.163401294994525,2.23482005739795,-1.9116501413987033
0.23972422874676444,0.024590485004275065,3.672292503436263,5.276058039538282,0.6254343474127793,3.2606574907100137,1.2983977373623992,0.14548598857854422,9.16263043938704,-5.830691064741495,-5.959440418649153,6.226449856238983,1.239597198913109,-1.197035773359968,-5.767087898744109,10.57732864052785,-1.2966081958835127,-3.4484437191784134,6.2130410679983274,6.977583466819224,11.226554311019408,0.2928919015976729,-5.5952316933475945,3.4048512532273367,2.3804361372435556,-4.324386009372158,15.885177971168943,6.456718874519053,0.1178299888324114,3.3035937175587464,1.2416902758278014,-1.6745126672638033
0.13411121913394172,-2.693933912031149,5.664576211188539,-0.33785406459630457,-4.4271864058818995,-1.8617101446097828,2.476445015603326,3.1295212704957494,6.654521922547896,5.9998566603218775,-7.637630870775443,3.661636699779877,-2.1766050831274266,6.370981083570311,-2.303305605660605,13.453872473156242,6.515443227928939,-2.638190951840636,3.7037457082531757,9.497418223678642,4.873201779110567,-2.8743638187997234,0.7145636830586297,-0.19169009319318847,6.06109762594171,-0.8729019613799394,10.415785313920594,-0.957169062128293,-1.3628928656660995,1.3154729086424137,2.3454549548169847,-1.7490990632255112
-1.6826150955838035,0.2862464158967351,-1.9100506582588632,-0.9690164520507031,-6.253793968253293,-1.7269992443863997,-1.7170931747973075,-1.3540939977835968,-1.2262223145059155,-5.284815477335084,-8.078207231148578,11.321563166474784,-6.342388063119327,2.331847605461847,0.33789823007260994,10.598248564490362,-1.300006673471682,6.493029327868167,-0.1692734333490784,7.177771743054691,9.746314247281815,-1.6041723106654895,-8.716602585079647,7.875158562399659,9.18934516215981,-8.888040468319439,11.030059774472408,5.88101785089275,-0.682534952800107,-0.173912484793608,-4.106923693990313,3.724056785870065
5.305846825053706,-9.44888487638763,9.104812631901497,-2.125248047956545,-2.5436936551317597,5.171670384664901,2.315918798164549,-3.1318425287875415,-4.744265819936161,-2.4439809192370605,0.1253650510135989,3.2375188260356143,1.9618372397208113,0.018236262452714033,6.295284793155895,-0.5144982268870222,2.239091101047048,0.28713174888201365,-1.1534200107743173,0.002346909978040131,2.4135240349520837,0.5964935525223056,-2.180810922217234,-4.652461446633838,0.49180839881694327,-1.1299584172938038,2.3464042272264125,2.1598367975477535,3.385693326480432,-2.7848904437666477,5.226220901553761,-3.8533916075867345
2.4600170195371143,8.676512031215282,0.8480675540854365,5.742390010873023,1.9374581879024444,7.349838684678214,0.19482175614547906,2.5793867802279262,0.8136302370219427,-2.4758308593960736,-1.6339482031625703,-0.39636913354578196,-0.8659149720376148,-2.9816626316663513,-2.114156821929987,-0.9740229668491077,-4.6541721067529815,-5.343888431093917,-0.5530596642953078,0.1934158834428094,-1.9638266053668403,0.7128260614183046,6.288220714767038,-3.5309882165747144,0.1256841368785731,2.669934405655383,-2.7800885165308777,-0.5183582891191103,-8.168272387669859,-8.181845310739115,-3.6293963404602496,4.526943994896058
0.1816913730235341,-4.738253470516451,8.563959406060128,-1.467208542976513,10.54466913010462,-3.767544472174983,0.3529448967978131,1.899903689739372,3.9361468660270864,3.83465631067916,3.4307954670132745,-0.40307091640179166,-1.7983096621599886,-1.3068570980451197,-2.5835971829977216,5.611018872119136,3.3046427578564495,0.9310003580460189,-3.696026623138096,-1.013452586981115,4.300634381871343,0.9129685706406192,5.587481446942161,6.402120324060752,-6.204690360972996,1.3945493920793663,5.383684367058238,-3.919607325312045,-1.7447521496435185,11.060747472607293,5.147715342081401,0.436198367998889
0.7272847340482242,3.3821840900825797,-1.2797999926613186,0.6303258261368216,-7.166583937168459,-0.4169675283726692,2.5920678724299053,0.7629172888508888,5.900374391335082,-2.027335471762929,0.5401818185568715,0.5861757400050736,-1.2153477545929872,15.462335969449773,-4.544820306703154,1.4819576950648021,-0.10411477110506877,4.501000281072774,18.733173923489502,5.463303833662932,2.5895008967366167,1.4152101262047396,-5.028418323248691,0.19536415644558916,-2.27608433082968,-5.7554003941941065,1.5905144783353666,2.204142867241253,4.215797310507819,5.454348702338584,-1.3642256479178905,3.172633054091774
4.400081688848153,-0.8249034777475497,-5.846694122138982,-2.375258808350624,3.737423777536506,-3.38449391579828,3.3688773395843286,2.8457828591498067,-1.115276173327236,-16.793895670750466,7.495827329629441,-2.460457493626818,-2.0015651233451854,-0.8569711275683611,2.405828358450194,4.250497446936724,1.3350532453663713,-5.817328579185334,-6.25236740257978,-0.07497334749108343,1.0923788937277188,1.5102916310604406,-1.1142215662672836,0.7519106236537799,-6.0219019925681145,-2.7703016127470454,-0.10861807553707843,-3.238095287985003,6.140016694791973,-2.1822457510520095,2.6054699243842125,-7.045129571432077
-3.0898624919761164,1.0817051118013008,0.1869385616648547,-1.7112661962134776,5.261714572482617,0.21508793415589333,-0.675186103626019,0.6413266812686211,1.731745350752373,-10.80770188639252,12.733314420601536,1.484676997305726,6.973621773382049,-4.801358861094314,1.5182134508405702,5.485248243654616,-1.023406184858,8.140649878626997,-0.8237487859763897,9.236197883404246,-3.799812752330106,1.0437133643583887,1.695875483377763,-0.15512512621397778,-4.52660415668122,-4.465532411585248,1.8825301312051963,3.3874395505932458,-5.967703081036039,-2.225697024389768,0.5642678304913425,10.046070388855846
1.154382774853793,3.676785586521433,2.5523820626178484,-0.31337669598822443,-6.5928055857492485,5.404045678747067,-1.5638158538760716,2.126204871823138,-2.1878078639364658,-0.5070231207061652,6.2537336890877695,2.5171356798174815,-2.011275913384591,-6.229965620931787,6.076655694629408,-2.6287740684869907,-7.398525427306656,4.772259740889394,-4.023198868590788,2.4575299968429096,3.9854036274325835,-0.6649548849390379,4.891243651147019,-8.872266535750498,0.10888135244490434,-5.331990704534353,-2.3952359869737627,-0.46082312358904337,-2.5216894123501237,1.0591346477188126,2.2250650996623325,-4.966976218556811
3.3661192794186863,-4.147754116806618,-7.392792169915504,0.5357590386569924,10.119073345148484,4.001476543533157,2.320120270427183,-2.2194294354210338,-4.773405821025687,-3.197790357275234,5.106182418784655,-2.102896104615303,1.5869917445316502,-1.4918648904954348,-10.389667108794594,2.2884000626320224,-1.581702574142815,2.1499859610946324,-2.532189695100741,4.5472306234986215,7.500386770482422,13.610918250311107,-5.296308878336479,-5.697890356673209,1.8616425794959137,-6.513715990734172,-3.251860799674304,6.732811276714281,1.9920229414561463,8.108331450291205,-1.9129502324440313,0.6430164720024558
-2.2839433202299606,-0.6526351747389703,-8.915868846791655,0.8590428412845946,1.7394373199505466,-4.080608598489085,4.0869297296332165,6.467068045099269,-2.869285143414902,9.932981451025027,6.997388497359157,0.8616723981331251,9.552000384406465,2.833116788283996,-3.4624098338190694,-2.4160046457625395,1.545185537550426,-6.4008536519943915,4.754499487228965,1.2392327062717843,5.273462290699575,-2.8792344573868176,8.34475145400334,-4.938211603254446,3.0638625000793716,4.217700390912694,5.630356594734763,-0.5271785830337364,-2.9851379884937437,-0.31317605200857473,0.2692413997215846,0.055460779559932
4.789224646195231,6.058732838455249,3.598214282257481,1.6732631588885998,7.096266100016435,9.543481847306964,-1.1197169887069518,-1.0059492002872483,-4.085442064342721,10.385492369118637,-14.603161101914255,-7.892649949442019,20.65251604903451,0.48065817963204593,9.720555201036982,-12.14880366757411,2.7319827428296635,5.512266299124666,10.299112006685743,-2.3911395332975607,-11.166356900335234,5.905300382084228,10.293493623451043,16.644018726150605,-12.445633247017339,-3.5169126417484864,-2.572726755578812,8.694208448315033,3.2584607342425227,6.3501264364072725,4.481882527354382,7.721783858769786
-4.888678036622113
-6.584512563973841
-4.113978875491189
-6.523634497923607
-8.795365053570478
-3.438588199510839
-4.918961284240937
-7.184144931829176
5.47601286360455
-3.5632360785918555
1.776975635865271
8.109767584576584
-2.3378924640343284
3.197420859478804
-3.9119061211977137
2.008080159995887
-8.498765615952012
-4.9717810229676225
-3.3725104120744107
3.227548180290078
1.8611269371583994
-6.025000061992052
-3.085450609098539
-5.923957278122093
2.8515979656959396
3.0708517542470344
13.897628591771888
-6.720704903686483
-3.190663252270487
-9.02723598295371
-6.023921709968368
-6.09119519317783