1.8693725531263552,5.153129319533156,0.6776614343356832,-4.758957780318511,0.17541998278805693,-2.307903394936009,2.794960897014192,0.4333376552531117,-5.538211753788256,-3.420456719471425,0.43414401818319404,0.7190826104734701,0.581602225775301,0.3060192631700601,-0.6733332751051073,-11.30746972122377,-0.2997723526906936,-1.998440753611549,-0.08233138958927057,-2.9863703557851884,-0.8072754227331229,-0.6353472787473988,23.540654337185437,-0.8453571804814912,0.1571637124203266,0.31602033091084625,0.09581334705526037,0.22301807948937122,17.561779992093182,-5.004603532078711,-1.1228605787942907,0.33337525469600005
-1.321153604745721,-1.575003663341646,-5.1703494529628715,2.491915834594623,-0.8237397725216672,3.8825465874064817,3.488950800112215,-1.0235871450169234,0.2963329368959824,4.184652656534395,-0.3471208941690061,0.41363368480338325,-7.681529850381817,-0.8383936579639293,-4.903123685691363,4.775382401603021,-0.5190729747795492,4.278194299234205,-0.3678009831986319,2.5500022386116217,-4.109368853994772,-0.07072776695627962,2.702271917455259,-1.6119623248900774,-1.0006723292812438,-0.8994164327662868,-1.2273313655198785,-0.9899504318909799,-4.471560785811358,4.57400531283687,0.515818179391015,-0.9217366316614433
-6.833065675523701,1.7358444879802672,3.0080406999189058,2.076227699853161,0.3525466453545575,-3.218662928572401,-2.6682435367993684,-0.29998823454032114,1.1923523441175206,6.9367236394555425,0.2302041929140255,1.1937620213269686,7.488307238662979,0.2069040675237058,3.113806758569849,0.21860896013069467,0.8666016346443536,7.327127460677988,0.961082601369293,4.0076585611569735,5.478621774436727,1.4641379051704486,-2.029896710894435,-7.809611910143453,0.08208566834484408,-0.1333492704822011,-0.5960410681584807,-0.4166777831696743,9.278115140743646,8.404631388499077,2.3035874535641807,0.09512323136978998
-3.2400550748725805,-4.196745024890478,-3.873740093927624,-1.488299804218411,-0.5584841470606852,-2.6191049484206714,-7.502666428351911,-0.0942564532096379,-5.153537927140987,-3.63249226653655,1.5394776916431256,-1.5052568205342212,-3.4234817036776217,-0.5035830981859502,-0.4500435900394242,5.408547711057426,-1.280546371768323,-0.21675603167182558,-1.185381087613769,-3.8393963879475836,-0.29019451143408526,-1.4562780629369703,-5.293539009909318,-2.496753057327526,-0.3991304527121714,0.44083209661899003,-0.6395494601572926,-0.09181821989869772,7.437054455072085,-1.9603483552044971,-1.9931355639700785,0.3477414691074614
0.6393281476995495,2.8676966910124593,2.061261767642416,2.011785892467614,0.8911176172214158,0.8418194286807416,10.245941395048774,0.47094002229987086,4.454361998504332,3.3305347082655756,-0.3878402987063297,1.7174010109263984,-2.126773039902989,1.0127678678643428,4.45057156104838,-1.323544943210952,1.8656402992391536,1.6923888802751343,2.150922245934057,4.684436972304328,2.21743200811871,2.079694317962027,1.2325413384080524,-0.5741576212097866,0.7773622043481089,-0.11239822037695686,0.6739202616397356,0.4596099065441095,-7.739735758615599,7.0768300469310725,2.825338073716357,-0.04246431881021624
-0.35845658041901607,0.9269262601363218,3.247670777033694,-3.025263958475411,0.7624791693218752,1.380485224371169,-2.7018266076009656,0.9395591884028673,0.8207318448869657,-2.3348086945214024,2.3501322058996448,0.10181200996843047,3.671964858003764,0.8776802505159899,-0.5838958023337846,3.6781686729289147,0.6035338932931281,-2.3844655151282077,0.8011480031380287,0.3761665456592633,-0.5205974635686028,0.5039537324858038,-5.729069048943613,-0.2403037347245589,0.847200049843862,1.0113633805751185,0.6267053787986875,0.8778104866802411,3.0406112191962733,-3.970806223492326,0.37087416526879574,0.9231563863891286
-0.09823480552572884,0.003765634658282363,-0.7274701880114995,-0.1327240051510144,-0.3144339878658013,0.5205147569352631,-0.8710850527937756,-0.5791909538662722,0.15017770774714712,0.4150759478143041,-0.589632526397414,-0.145621469803854,-2.2320725016407255,-0.4104282194217753,0.005604893048380803,-1.044560338924585,-0.18773688643110623,0.16757427082668652,-0.17237262378146898,0.2429716028400324,0.2607493368259558,0.028983358353906724,0.6970944132121879,-0.2133595165785638,-0.5707245828813386,-0.4808793745726524,-0.33494494363248356,-0.5768497414545775,-3.302221085478054,0.12456838907050959,0.13329742114489243,-0.3186000469008746
-0.07034145955729773,-0.2817924495045364,-0.8757487923313171,0.3557876609134209,-0.2294053532814018,-0.3146456546638407,-0.0061849616207226114,-0.27832516020764003,-0.23584769185894325,-0.19661605166578375,-0.1555095039701333,-0.3753555273018565,0.2900827198599014,-0.22327069554399184,4.58412451233781,1.5238856977178035,-0.20722276661752873,-0.16578000572452753,-0.2590785223947278,-0.1592277532172803,0.6826305195423498,-0.2502902630175604,0.05416497903302145,-0.5213450429174653,-0.22098767381096499,-0.17211904689667765,-0.3555107555156661,-0.2640613451550355,0.3623164926952867,-0.11942757994612473,-0.19450349494971908,-0.18471133145442356
-0.6830183535681851,0.23799522288143418,0.2923763483254613,0.7857213613848012,-0.07892424729604564,2.379865894620558,-0.06155079670818129,-0.10225475971029174,2.3647395473228676,0.774892463542109,-0.2984246279364275,-0.03161361739583306,-1.921518199296216,-0.06815804931705728,0.5351066278842537,-2.9699666304936594,-0.007227104029265383,0.8775640551163185,0.01773870029019763,1.0651415303890144,0.47341059381123035,0.16612913134314067,0.11466520888170424,0.8407429314675384,-0.056405673587383756,-0.21879194970254484,-0.05506320127554831,-0.11764074546396978,-1.915899292284054,0.5916368033155311,0.09217033887497049,-0.20608865492674258
-2.1936253999070794,-2.1523879352270163,-4.269193936403141,-0.8241103093909828,0.21081984839993884,0.5066914798185755,-5.46710889412797,0.3535486064558636,6.320778082081054,-0.8991681791947331,-0.13177846082050015,0.3012213519700799,-9.102117450500614,0.06967836041917475,-5.018752007531341,-4.604323578755887,0.594124751388751,-2.0740597359207307,-0.0615364835909787,0.9165550104490259,-2.376444725780372,0.08973943166631075,1.6272345403882225,1.0266441865407756,0.5250160287726544,0.16714374708828245,1.0698736587026494,0.4527919596995888,-2.853705912180296,1.754799766145443,-0.4980369241571592,0.016004739297973435
-3.874121856269501,3.4356933072142475,0.6013960448623982,-0.5025723448566817,1.995309995772378,-1.2843163428401074,-3.5532561490586954,2.5944793043078063,-3.5676793933316713,-3.1795575098939803,0.13109748428927864,-1.2313945140275884,-0.25216167919412924,2.121482223909794,-5.456948698489766,-2.3747706545992395,2.192982445633872,-1.5509621774031181,2.2556014356238654,-1.5785920759563672,-2.6002766860776427,1.2604210912425733,-0.8271939918958117,-2.69296313679595,2.4589792919745856,0.9627015517792501,2.1172800791580593,2.208163333086279,-2.0705054240464578,4.113921420798375,0.2902003866039996,0.5665595325024193
6.1872315613630295,-1.2455967272645727,-4.4829905795538405,3.05353840705298,-2.7137684752168494,-9.262736008558633,2.508152553408308,-3.186156381501688,-4.0507745831540705,-0.6529117373939144,-1.2133513380146683,-0.010922345758938638,1.1797075711319827,-2.6553084027489593,3.837525729319115,-21.162181966555774,-2.7673746599867495,2.822062790807509,-2.5612828181803455,-2.196349669435892,5.065586761319119,-2.147947887490518,11.414871946649432,4.054543891498102,-3.160203167798281,-1.9144470622946275,-3.1231525513250027,-2.9662294738001,-7.886949321959538,2.203901079815324,-2.215627645938797,-1.456975485045914
-0.24502915871582243,3.22658498012432,5.6718344713127165,6.618137446861673,0.9085831922629303,4.31326462357789,-8.267612677912176,1.1737858544241033,1.1026151278167142,0.7944581321244618,2.0797710030726435,2.1928755877139454,15.477499736443795,0.8623106774384351,4.218587315249405,-2.014519057730765,0.2579380598477374,2.3603964531108215,0.3690043763947136,-0.6270169390713725,-3.2623061660381936,0.0493978205719187,-6.709796749614341,-1.0913587972956886,1.005919357099743,1.4197211159083518,0.8404191731997328,1.0677156385597049,-10.825481946554376,2.4568642438983455,-0.10041169286340806,1.234360717093083
-1.0130486691730098,2.0074331641550676,1.9223184618983513,5.999498433712783,0.04112420912047902,6.566780905501195,2.192385391995355,0.30402807200625925,-3.2481039808802703,-1.83620595942846,0.8217035063274144,-0.48975893789322456,-5.934976002517466,0.0236412220133791,1.610674432226194,11.183925331240092,-0.11381456442041284,-4.321949326062942,-0.23545606731347765,-2.1946879769974004,-3.7977102660897364,-0.3398904224215595,-7.72004906114055,-0.516548999736296,0.1276918251540031,0.3765544229894606,0.4899027813565223,0.39373595952321266,11.0052334256901,-6.710598823201132,-0.6378306374041998,0.2925892081970894
0.3765953618434542,-0.1183183078380482,2.871455072273649,0.7685515156038832,-0.18278809877609367,2.4539493795117777,-0.21508893830377582,-0.11964337867438246,-0.011531584712710345,-0.3845879007115433,-0.47587180127267,0.5222398662340781,0.1430140121918604,-0.16791583347150776,-1.1021182927531672,-5.050049884684683,-0.08325515378955738,-0.5998005652065669,-0.09341044481704745,-0.10272520628535213,0.805280730911691,-0.10387823501820735,-0.9498827911906882,-0.5814103240527405,-0.1715112799682555,-0.27140415088071945,-0.11122900985443705,-0.0637972403390839,0.08948129127270094,-1.6072150113794814,-0.14031822998423002,-0.3293371897415317
-0.01641060269019779,-0.030845252211220378,-0.4098822860423922,-0.03248177533007663,-0.009047662315073925,-0.2641761207903091,0.010184572692568634,-0.026501276888684658,0.026567763044103545,-0.017592580596925193,-0.0109425897518122,-0.04517576260036795,-0.6732055373776322,0.023549045303053198,-0.027269747921579282,0.30295707454739157,-3.81359442424585E-4,0.046981275360397964,-0.008681561974750467,0.01867645473483783,0.3743717610261968,-0.023706093429325184,-0.008341488772638494,0.0077508163709317495,0.023434270165993365,-0.0028790754133122603,-0.011958423463580392,-0.025438425570811083,0.021411365209314345,0.006752805965372052,-0.007135797201449846,0.02676767003105354
-5.951179642148935,-0.20037950155882578,-0.39411707835598864,-3.0900537716162315,-0.13723983157268213,-0.03269186688933912,-2.2670032644717852,-0.04749416846265865,2.0357472260834366,-0.882379817365717,-0.10559132405082118,-0.44084365966159467,-2.102726523318238,-0.11262159237847133,3.950217494055153,1.0116337761859708,-0.06766214836900374,-1.6526060291349811,-0.10650018675294953,-0.2957611594820746,0.5848979705162716,-0.21153788391046116,11.477702393689675,-0.012382419736344926,-0.09234960294355686,-0.27352477760830973,0.010435105304898922,-0.030191182255957655,-1.0537422429463386,-1.4759237317002531,-0.2978990746092943,-0.21197257739907263
3.254152054120035,-0.9883763616273615,-1.7898514458841321,-0.14339924581103744,-0.31737409498031965,1.7609370540106717,-1.7317190059930783,-0.00954152607884589,-2.537954820285931,-2.3446763083372923,-0.6725190806314046,-0.5175454329770193,-3.1732446991960974,-0.2976848827747826,-1.6165055907847028,6.782067597789556,-0.7001110799613082,-2.001637502700339,-0.6347882208426758,-2.0224691490678963,-0.7204745723905497,-0.72956182671949,-11.915113594530542,1.0573217675742665,-0.1986923047413931,-0.3300278692044024,0.14220093604817127,0.08591479872293188,-1.7119111409686303,1.004947409279183,-1.2644816868524387,-0.410701293551007
-6.969250412522709,-0.3213090152132781,11.41842938376148,-4.815506179911373,-1.7755993530709506,0.6088074961256967,-1.9372533719896947,-1.7299658215713996,-2.951699013105851,-1.605025598031613,-0.23064321988312955,-0.9162874576801983,-8.14347085813389,-1.7252278728606123,3.4025157002371835,-3.198158822705219,-1.920518427073324,-1.1360109763474249,-1.663191111530229,-1.0601027640824228,-0.5676568283068436,-1.778263667871805,3.201645628387268,-0.6211177111043443,-1.9215230679452275,-1.207718798709343,-1.9641648295354053,-1.67698243241359,-0.17274937467575252,-6.198257778673183,-1.2040679913746977,-1.0458973991166698
3.109666219856982,-14.491937355048409,-18.04849114810092,18.112596980592798,-2.596434391614349,-8.101507779485704,12.714521297531505,-3.558423450247309,-0.4731970328900102,-0.6620849781199613,-5.726981609765926,-4.019702061694397,-22.454501043701935,-2.872491095436588,33.74689250339181,-17.736035153131095,-2.5274685276250257,-3.5525437594628646,-3.54688250384303,-3.8804570875039426,16.55392389152798,-1.5157566088645944,62.72844956212507,-0.7611098386588533,-2.9257567730272314,-2.756554977186642,-2.34847813778449,-2.990657153684101,34.47223179980813,-9.052445263728057,-1.7521474384309959,-2.252876451249668
-2.833637896413467,1.2803977139735299,1.875746334964229,-6.826834522717484,0.22452165837646765,11.291614598214178,-3.358737795872795,0.09099623767025464,0.2429332765199186,0.7589570249322786,-0.23689354320393316,0.292998639441342,5.93046718455476,0.024259293457666156,0.38489914663700286,-1.0428278125445167,0.02747920463796266,-0.6984864217068667,0.11293726413262037,0.29934994664452574,-1.8514450011860568,0.14667867016104924,16.252903279940778,-2.4930931340746376,-0.013667968809682391,-0.02713564041769529,0.30762018413652653,0.08410296122213645,-8.937170854924444,1.4262718214755303,0.4008742540496074,-0.12565147631308474
-1.378808650657989,-0.6761805149039875,10.139613327483318,-1.4010516325758415,-1.0320013418550489,0.6987039087784379,4.503370177572652,-0.923590410314725,0.885120262860169,0.5903041236539384,-0.9685872363983219,1.906639152610419,14.306290406903894,-1.0155427961698351,-3.4692653365065325,8.104007725458715,-1.0920882025935306,-1.1218547543517317,-1.018101637648016,-0.905418746389699,4.839429539387327,-1.1919291570692083,-8.37685528075766,2.399424499031429,-1.086816655764769,-0.901230291839178,-0.6717132081126878,-0.9143575062667764,4.006295124571488,-0.778714544843369,-0.8727585387003803,-0.8329617532985335
-0.1357261494660534,-0.3535919392622123,-2.814495399377728,0.4051703973378794,-0.14064210485890377,-2.8890320432307592,-0.3644191114043845,-0.07004203924797837,-1.2417599517234463,-0.6266083810448423,-0.29801220547106,-0.6295660608546261,-3.525322910833792,-0.1258703575158286,-1.54517903586761,-3.2143439924575348,-0.2078260701582567,-0.35553695582069306,-0.1969228925942547,-0.36100515291551066,0.11392490627204288,-0.11777580790401336,2.1810131099912784,0.7411844580479959,-0.1212955801897085,-0.24112206420341462,-0.034664837509021725,-0.15441619280238056,-3.3212716544509155,-0.5768989184066364,-0.23491062628836049,-0.1709462259796353
0.047366144049280016,0.0014152938675993292,-0.5252318477245006,-0.02176290780971577,-0.010627362000077753,-0.049077289783690733,-0.010241074512497162,-0.02974072573103174,-0.029539631326232732,0.02988258783873824,0.015009399049834119,-0.05250850245510348,-0.2195749497361012,-0.041935363503717564,0.03334685802367299,-0.0485489512192179,0.025421053792852633,0.038533579152015836,-0.03839872790850596,1.711870429266587E-4,-0.022017000053065436,-0.016829721473298566,0.009666338481104415,-0.0208357172638911,0.026448030244215086,-6.394175216688076E-7,-0.02019530071442739,-0.019616248305080616,-0.0021215032505591085,-0.01585099878336377,0.03376115229597108,-0.01935745773460164
0.222991235566067,0.24838725532657138,0.5065698252379298,-0.27662469912609355,0.2996095840381913,1.2941078551059766,0.7649528954811682,0.07054305180048444,0.5779717179045079,0.780295493474778,0.02686724393870507,0.1673949050553228,0.1054392887398411,0.23354249499761717,-0.12088475996491248,-0.9821256653214625,0.2619189989905854,0.4926869947008525,0.2582608225261108,0.6943476501714377,-0.1229037670209881,0.4981984248149659,1.5724335579213766,0.6009094630407816,0.11574866785606464,0.14844696281599754,0.28487001526108835,0.27470858107278406,-1.2630818338478214,2.887192408332993,0.5006078634903999,0.12411872329625824
2.4597671469716595,-0.10353133854299894,1.29303184260482,0.42681838752753176,-0.2681899408849851,-0.12895330704265393,0.5632905862066024,-0.13884381237332954,1.0644076794830708,-0.48479346744589863,-0.52135168320971,-0.34122081961937734,0.25584955990495145,-0.25704927808743827,6.942664680932199,-2.5607345085670405,0.0019711889282140287,-0.7520617008937026,-0.11965835341281178,-0.24469717869388444,3.5774855048585925,-0.18892731207447377,11.012192106970943,2.723268749856754,-0.1660221626391373,-0.34457016174603333,-0.18743176702443332,-0.24772115642424108,-1.0719540512149532,-0.7293622589882948,-0.1891015525268139,-0.4037073434974326
-0.9839354799437711,-0.6065446759253252,-1.28862850415103,0.8920196762158525,0.13246178564604608,2.4698349937206463,-1.2232918002354953,0.3925431300148424,1.0212889124408122,0.09824761570887937,-0.3024319479927709,-0.18870297617827564,-0.09573558932954587,0.15731302212256684,1.8915944725983151,-1.7839147337561894,0.14927730655356033,0.7944478277277353,0.1477712325302598,1.4488468349700216,2.385855642405764,-0.202355974787368,-10.672088324545587,-0.0878015183167901,0.2487370362223401,-0.20877864134436017,0.926641220419242,0.32499763680048716,-7.102325333978387,-1.9683382140129426,0.1018574116213651,-0.1817973393950623
-6.597600248299885,7.5820638175851345,5.548101779533556,-9.596503681280277,1.6785584434888525,4.102531315059343,-4.7675539468001125,2.353652412961947,2.441415049097791,0.9849146605887571,1.764798379038189,0.3287798099709776,2.8028044673425168,1.9079255562757254,-7.691630856197451,20.39992328767429,1.9568065087828435,-6.039562666429423E-4,2.4880095907331192,0.952702422027558,-0.7152326070470931,0.9538051699768415,-11.678451452022172,-3.2325132889841552,2.058215253677191,1.1602236039694729,1.4038365497683645,1.871315222879316,-6.779238780510322,3.6808548674282577,1.0329104265347107,0.8853564136034064
-2.0608809201126133,-4.850378625138787,-1.1610343255687228,-2.4285494319831535,-2.5927438892602996,-0.6596763678068942,-7.0738796462694005,-3.0589692101380446,-3.6344099896931654,-1.907652782898597,-1.0468415581278951,-2.62102977466159,-3.4510567336808657,-2.6735627357508824,-9.907347660833024,-8.42298364872195,-2.8891398358845994,-2.9597026850569015,-3.0460817668146487,-1.8220730787593025,-6.447036709750303,-2.5475419055596173,-4.689385547044358,-2.09992081353465,-2.90268842782991,-1.8046604617684117,-3.2208489241791085,-2.8328926462390527,-4.887183212197823,-2.1255769762301533,-2.1541053418113383,-1.484113861138111
0.2757404772161591,-0.25515293164636843,-2.7046256103875934,0.24001327068057415,-0.3894428740067797,-0.15357173476397643,1.2363608188537643,-0.3612332947640111,-0.9733519754424295,-0.32282821556562036,-0.30327579084999845,0.11675123319114913,-0.18060669875522214,-0.3220493377739242,0.8196555269860335,-2.986843691716692,-0.3711169417676895,-0.3718164911301142,-0.3491654827108839,-0.2677044975829004,0.3584356604902061,-0.3363012141635317,-2.85893627647004,-1.105509956459226,-0.3212120047897691,-0.3884175938614981,-0.42285110735493153,-0.38205161326098613,0.510019739172854,-0.03981456199201667,-0.338729955641437,-0.33648344336969765
0.013763642488263672,-0.03517290370971227,-0.015202209913591738,0.03388704705761156,-0.01187034829318303,0.0379210502748971,-0.04373378392426052,-0.041106122112388246,0.04237557104997511,0.042704479913895574,0.04714910029631851,-0.014062130441455399,0.010014260259409234,-0.04867344842168039,0.020689540940742462,-0.02052284745514127,0.036867848281447055,-0.032725277639364204,0.007258017600057676,0.009970565268911616,-0.0293775291759283,0.007512109496534969,-0.030798317135583553,-0.004029696374190039,0.00645381155160861,0.01330912020524637,0.03586509236078683,-0.046867026189815836,-0.029730517402669156,0.00991396267916983,-0.005716514366220317,0.010576959708956488
-0.020194354693269925,0.04780438707407822,-0.006196359299398935,0.04417406014542678,0.035631714703056386,0.04898559661374437,-0.0012338324038989185,-0.006351377243196989,-0.040941603647014525,-0.049353045704405865,0.0023871117368694655,-0.024232548265306877,0.012010687005086465,-0.014537230532523572,-0.0028944600942411927,-0.02056099267189885,0.005118899122479446,-0.03707989690838921,-0.01808221459831693,0.03020048976337944,0.024597163767419536,0.019279161448717802,-0.024402147055685653,0.04135666968348209,-0.014079726096762939,-0.014880446289083638,-0.0037925588062290294,0.026944339844558463,-0.04712385192212768,-0.021101709587744735,-0.038072068434005436,0.03773155358310552
-0.191457092408307,-0.1671744011434413,-0.12919388013230876,0.09197240419718812,-0.2648829234723963,-0.31236550343987385,-0.16190201448376038,-0.2185695862571576,-4.3599555795520315,-0.4179210687689904,-0.07274818261711322,-0.05960785276130818,-0.08617993847712131,-0.22366949570851624,0.3784538859929047,0.12117407296019655,-0.41594101119008275,-0.29238454584887774,-0.27801460371993086,-0.9865465359688806,0.34119856234841894,-0.28919108437124763,0.1894993343718789,-1.3720039880071988,-0.31313389997012875,-0.245017988676678,-0.4227781687122617,-0.30004097117278816,-0.009211289404927232,-0.3646172154108649,-0.3222091955667408,-0.13006715469487304
-0.004422234914494547,-1.7498841534561993E-4,0.01913955720572305,0.0037099172843435974,-0.011750139619699673,0.04823845213817403,0.004062252327072191,0.007172393133752029,-0.03479374191902007,-0.04210086512699523,0.0486493312529029,0.027601563997939935,-1.553731211758405E-4,0.020515933954977444,0.031826859266307905,-0.02387288185781048,0.031756087258591886,0.010519105681559837,-0.014416810943238656,0.03639125744364437,0.006337190754286216,-0.03030982141457063,0.002392549450740869,-0.03282171545152926,-0.048594706283028845,0.005910910488884577,-0.030085409351424265,-0.004565688075910047,0.04345713286991189,-0.008980317237408997,0.0270647071974853,-0.03755131960871621
-0.8648167563588248,-0.500825635921562,-0.9796730831894551,-0.3155107794834236,-0.08819638086325166,-1.0063907902254234,-0.45877439634046147,-0.2199994414145334,0.44021683531014677,1.3356659339595363,0.07313832999267612,-0.3473876031785297,-0.22868776593590992,-0.10482265393516702,-2.1269777285387583,1.3096334211526846,-0.111802176754422,4.216482351651219,-0.1864797066384392,0.10916074478010038,-4.442317118069529,-0.19022680624091645,3.5105562584053778,-2.4196072769114156,-0.2289367690757627,-0.03179498712572638,-0.2783340050747238,-0.16365851136058152,-2.7006594214975337,2.426540680635937,0.16424565894539797,-0.025695287550269605
-2.735046334339143,0.06128139640180914,-0.7286356636883559,-7.701086813731064,-0.9430419566930642,-4.409354242687768,-5.631321395020671,-0.7577940004233961,-1.218327657919147,-1.89880678626871,-0.842155418477527,-1.5457786699492977,-2.7015930224112066,-0.9198070122225065,-11.224388832091444,1.9221159682684004,-1.167831402877672,-3.655466398801986,-1.0056218821356482,-1.2821105703204585,-6.6024529396266995,-1.0780975377053217,-29.506672192464706,-0.23787468585742833,-0.9136376607874245,-0.7791692595407134,-0.7955520774157122,-0.7188189640834965,-9.284024055737445,-5.880035588284628,-1.1606672163783094,-0.8048146039741354
0.7647475754873402,-1.7246896485945455,0.37163278209137657,-4.820583586442105,-0.39329925696827656,-0.452010115672439,-6.008008843979586,-0.3576677622060531,-0.36565116176823753,-1.2464290843236687,-0.6569483543046328,-0.7681794750470644,-2.6903144095061715,-0.39312203017783737,-7.260447795516607,-3.484850513554281,-0.3157533160553028,-2.0588681750705926,-0.4359183464679923,-0.4224055411728416,-4.399524725084762,-0.44288867353417877,-14.53284752700418,0.28791359713791104,-0.36264420254692337,-0.40544808704845814,-0.24571046503606286,-0.30972101449472156,-7.2931379230983575,-3.0899630648688396,-0.46450689453191296,-0.48967132765468396
-0.1112804597782907,-0.8547360723684558,1.6355372708257014,0.06627226116813002,-0.48272847912769673,-0.8464962873386895,-0.9407089414096172,-0.47898802482215047,-1.4917103314303632,-0.6540375898485065,-0.2058002806133629,-0.6240710248016751,-5.082831813053243,-0.427355897794394,1.3370209039106271,0.5726241428521457,-0.5018438928140015,-0.6498138546571001,-0.5276137027381121,-0.6429791657925449,-1.5641377538781518,-0.5289064880891676,-2.2633917024603343,-0.3626438871133419,-0.4344124294815901,-0.297289822246945,-0.5769172001151858,-0.4319649509955084,0.03306381557057135,-0.5635255176814151,-0.4810853321540101,-0.22845293793149654
0.020522048530971254,-0.003966901203700489,0.0014913876808663046,-0.04324208892485709,-0.0022017691292346223,-0.04622064985936928,-0.035669216634211826,0.04470896050238882,-0.02989544362024693,0.013511329189110938,-0.047095103313497214,-0.008132345654226658,-0.04931449781181512,-0.03037208630763402,-0.03658041242280287,0.04594045489814805,-0.020323703294058606,0.007535945640840078,-0.02108041397508964,-0.008232763032923016,-0.032283496335027057,-0.04740939634647465,-0.0359244647745291,-0.022497938638312554,0.03645472154563814,0.033862794469318405,-0.025912227882987693,-0.03802981862109192,-0.00625959228925714,-0.010871699778537545,0.0194579954156959,0.04987916198131888
0.039990286740216666,-0.049929092122590946,0.001133768454387632,-0.029277894584440724,0.014033146690556025,0.03741456945703307,0.00640984628555942,-0.02550384834050401,-0.04832173353791034,-0.03545286670021256,0.03497405231164695,-0.037230400806388037,0.048319129954258466,-0.004829004063399402,0.0066145043697761335,0.04716609219118893,-0.011924512404039557,0.025613569889813434,-0.012641219145367665,0.02899455590930554,0.026293179941223266,-0.034346851204307374,-0.0408054258716438,0.023538642265819823,-0.010337351553827215,-0.02693653115943381,-0.04997472982828886,0.01042962860631904,-0.011216650217796255,-0.04344719995331613,0.035142806603113294,-0.022438074045837298
0.021692789755755393,-6.288079782345163E-4,0.019254061558775556,0.04017039296018887,-0.016304766961532116,-0.028417955772268577,0.008975934349818374,-0.041026074871897605,-0.011233404826237192,-0.007158115118407769,-0.01028180768949151,-0.048300121545498335,-0.04912160403757772,-0.02049508632157856,0.028002041063017666,-0.009160957271563484,-0.030224896687387925,-0.040033556060971025,0.03051631695521126,0.007141081522698267,0.015055540684721647,-0.0296178667160531,0.0045920784894618386,-0.026854541163540024,0.004850498846262298,0.049247462382881704,-0.018719714990117556,0.023953067151273683,0.030955055789104555,0.033794639530655826,-0.01815383404963509,-0.01652109663228337
-0.009034441914586244,0.023761727397580465,0.031247801076276158,0.0035863105161700326,0.0497875485238482,0.018811469716828857,0.048045281343150184,-0.00921153638163312,-0.0321775663830909,-0.04527507781545973,-0.030809184177061667,-0.009387109636446435,0.0012069994648636756,-0.039532317330629785,2.7897670772689814E-4,0.023260066128775056,6.713377972941137E-4,0.03332415025760513,0.017090229715523625,0.01584715515939257,0.009897158466240272,-0.01748210479641267,-0.01736023924443212,-0.043686754120640714,-0.008300192547453768,0.02308390592409222,-0.01455241886280826,0.0019724983059429615,-0.009076178031797513,0.011231090461336767,0.04937472705739371,0.01173682663708818
-0.04387082850016332,-0.018087498048810248,-1.249050891782807,0.14456371678744842,0.0580312713667539,0.34483300758650465,0.24374957121312493,0.135519199041046,-0.6076112134458503,0.16702639640084627,-0.08744806886058766,-0.026051730487123448,-0.09130641056407789,0.06318456044647132,-0.4808459451706809,-0.16487614538527068,-0.016261569390554814,0.14515185961224158,0.054633176219956274,-0.043185128760362325,-0.30580115116079026,0.0811083684920137,-3.9624672343505725,0.33683231490429066,0.13449085652209708,0.012491137471685359,0.2034506365455021,0.17800985400172084,-0.5281539949933943,-0.15706078027770426,0.013973975522531353,0.029162835314300768
-0.6346451585825599,-2.3953270459968414,-1.1933054167824795,-1.4983259863857539,-0.5622729969069992,-0.9677261416064586,-1.9213501790373744,-0.7226901466299573,-0.8318272105299251,-0.24104437789805383,-0.3251912981778118,-0.667756742193987,-1.2780199749742158,-0.65829169332375,-4.877374396385153,-1.142369740001825,-0.6843039710584288,-1.6743164406043465,-0.9501811174109307,-1.3374400966502014,-3.0401524731095693,-0.7109354501874153,-6.346836361524502,-2.5291919962184823,-0.7052160413551122,-0.38183754914570156,-0.5368956614352592,-0.6043551456442972,-3.850541057892982,-2.707700185775981,-0.7394344713484694,-0.20518421279552604
-0.05804181173734085,-1.6639914891909675,0.10357078794651767,0.542366159718568,-0.1815993553447211,0.9836502036754696,-0.10484869172474372,-0.2876214581658663,-1.1104750106907557,-0.2142361542933617,-0.1146153381422364,-0.23375834390809605,-0.5083071181451222,-0.23547251700448013,0.03459014311208484,3.761306911275869,-0.23303473042959386,-0.08188781787967234,-0.2359815357240229,-0.2950399698705274,-0.20047954477230803,-0.18198171463111862,-0.01654537678463152,-0.12184344075592098,-0.31758459977576775,-0.17412446768527848,-0.3727342717793973,-0.2775992079092434,0.0010979663660479332,-0.5067167144510685,-0.14280270648413454,-0.19480667299627324
0.5512653141202594,1.9885669108599953,1.2839482240132851,-0.20542233523348832,0.27758827114931445,0.7786443871706302,4.92893318626828,0.18017790280391857,0.5166808774191858,0.4793467528555954,0.07338921461871033,0.4668660826338074,0.27664220695784514,0.1959581761778988,-0.3732854397162754,1.0570523823021827,0.38563173229056547,0.5902201078668855,0.4249967341191046,0.35729985650511487,-0.12680164128433685,0.34484692660413385,2.5370132799408633,0.21780738441224493,0.271050516892243,0.07496939816691883,0.162478164464043,0.22089838335587342,-2.1820900015102858,1.6808412794197127,0.33959970326747624,0.05543193955687556
0.012310165648097428,-0.047482822987722995,-9.042612995562721E-4,-0.034624471331909226,-0.025091128616250603,-0.0011710565523967778,-0.042952623700212134,-0.03822795950359856,0.001091046178868002,0.03666136233252244,0.01809014573622761,-0.014118709440676079,0.03716530008994198,0.01382755816602066,-0.03507951041015021,0.02033043626482406,0.024428107983293118,0.04795894333353788,-0.0034491485003000227,0.0414033781093765,0.009336236523931118,-0.04525145179964429,-0.03446555501576748,0.04180964911745143,-0.008609418096759303,-0.02284578309142976,-0.026747901186999948,-0.011112606200067543,0.002777474288563564,0.04820634567406723,0.02126229375708477,-0.008831774852790152
-0.027495150651371092,0.03266244333061677,-0.010530649594390894,0.035392030612536776,0.039587126807409764,-0.016526497150020095,-0.012256265866600204,-0.026655142058449523,0.044774057556515354,0.017874789394326157,0.006632264043458902,-0.01669676797551247,0.048385138847560585,-0.03511366244704478,-0.02507506164003509,0.0044033560368493055,-0.006997304129872518,-0.0388939188805702,0.017099037356696295,0.04391386346998187,-0.04590694618806084,-0.025098791554812108,-0.007959976776783118,-0.012824106811845051,-9.333082897950082E-4,0.020451004828381164,-0.014057320731038714,-0.0021155429411834,0.0058546276972594735,-0.017432944572219798,0.026924824666195377,-0.017579818336053703
-0.024230279115879917,0.010814395783410188,-0.013360102076100187,0.006100710926763439,0.012237967413026948,-0.04282018004685062,0.03505353173107144,-0.008493825124580204,0.02692629910078509,0.025381200296548445,0.018553191069033095,-5.566853043257672E-4,-0.02214024618966769,-0.028115618733021444,0.03868888145763656,-0.008352044803812263,0.04031232922024566,0.04879178402544471,0.019096760992421163,9.857816723780818E-4,-0.03942775723794692,0.00698961963897634,-0.038463517369784,-0.010303611305008634,0.04512368526207203,-0.01571183880734428,0.008476924163803301,-0.04086413701028381,-0.00664638865126338,-0.012237753673554494,0.049293933495547546,-0.014491781716470621
-0.00941651539535289,0.04209682861710276,0.02989757732595008,-0.004763795797791473,0.04004230598393409,0.016465016545332528,-0.0485146874800402,-0.039092819272704,0.02733867186777289,-0.03868623486072447,-0.02687860906703219,-0.0058601558733857514,-0.020943990547850722,-0.016595054923809194,-0.03502827853550558,0.03525280933577431,-0.0017134735773831275,-0.03744272488653231,-0.005722661380052008,-0.008723800696455487,0.034235856126023534,-0.03324283165312264,-0.035471530467938495,-0.0463675033959918,-0.029528264352128353,-0.04634573141387791,-0.03019480439725878,0.03472315100672506,-0.0030434869190214195,-0.044069940046571,-0.029120479504198674,-0.0013074893406046714
-0.03530536082937333,0.03562561734549283,0.04742761096695812,0.02580086551008011,0.008642746688183933,-0.041762775165513744,0.03157986681360628,0.042123518179040406,-0.0355287145342327,-0.018763792971149607,-0.017959597608804,-0.03329705259710031,-0.0021668725782006265,-0.026357976980863642,0.015136399738853584,-0.023183699074011122,0.010985924678851643,-0.01662468670343377,-0.03058830460007106,-0.031319394907964246,-0.009068541066253509,0.04734020420511839,0.04375794911805761,-0.004296756843403693,0.015676551479132134,-0.0044670784857552825,0.015580501301821884,-7.046141869203812E-4,0.040786596797946884,0.03494631377301638,0.015125096903220961,0.008301247990089036
-0.41754622383894674,-0.39248703323779427,-2.2448226690543884,0.3830244159485805,-0.024228122993039707,-0.8259979704404802,0.8928219105679814,-0.09862124764437563,0.05640496611494135,0.41969676760089275,-0.11636827662618271,-0.1756425175722789,-1.4639276323085446,-0.07478280097352037,-0.6184805595459782,1.9725001397565396,-0.1147800671637745,-0.10965881267865225,-0.15382838726082526,-0.03935974014562326,-1.3626843936906794,-0.06816257512363358,-0.22099051980782677,-0.24082775068088685,-0.07858449454673057,-0.009202873909504371,-0.06512067615331489,-0.07764340951562713,1.4495360112258318,-0.11882071976905387,-0.016782139343227892,-2.3805765393464145E-4
0.03498798720665049,-0.016380388830619395,-0.02126824157774955,0.03171410821262009,0.02869670221326169,-0.03464633589547503,-0.04395740575639639,-0.017174543916885124,0.010419629748012804,-0.03226814919756933,0.02563134150699893,-0.020323098995968826,-0.0033854921919911907,0.03911879231644179,0.01804159113958921,0.020660182810746996,-0.030705595722728386,-0.04000884253750612,-0.006975541764305815,-0.04624614391233089,-0.030677601197079518,-0.008013637958982536,0.02304479881619151,0.039311447317673914,-0.004467096926886072,-0.044989269098551166,-0.04469153699782672,-0.02852302769059144,0.045913193337925956,-0.005260689387911452,-0.03250076669277034,0.03584327841488065
0.045770032407027206,-0.03456287133584545,-0.04483209638540553,0.02012862693877078,-0.030377247654095774,-0.006245659209282918,0.014594960058066236,-0.03806773552247522,-0.021494493521678794,0.00799544625307251,0.013952122667398315,0.01303974288559509,-0.037572138281243686,0.014335286796022112,-0.022282961165776983,0.023284015803374608,-0.0010657412633713545,-0.023447695427321426,0.0445491916849846,-0.0013715743878533818,0.013019337041342907,0.009072133238870482,-0.002785889087250526,-0.03207711261171259,-0.04890257685842946,0.02446228197622663,0.004646806465536522,6.947030585350289E-4,-0.037708970293730104,-0.014008712040591509,-0.0391257346333218,-0.04562936041870768
0.013994481657388674,0.0034634390407674576,-0.04672921863335088,-0.0065130007083839744,-0.04451471157472055,-0.02373726154584931,0.043498793313224524,0.01572963398810158,-0.01670277021282708,0.03138752049386269,-0.0015082580960713785,0.04005595656879861,-0.044864430893667845,0.02622971748052365,-0.034035502516555044,-0.039313810813507766,0.04530617656105368,-0.014049515346928644,0.049190664580090845,0.047411241742336144,0.033946785110098784,0.02352650379929086,-8.348854249940058E-4,-0.022550259438960153,-0.02521001019520637,0.04688898279961004,0.008773874491596369,0.016996952440582663,-0.008245993336613335,-0.007950012631953537,-0.03677746213765501,0.03164339976338215
0.013348624709833001,0.03370841724058035,-0.026271864525753,-0.005998752224078752,-0.0342998233059168,0.01555061228021723,-0.0026415614959317893,-0.02583843369886756,0.009940774098370672,0.011308177384364924,0.024906456000768712,0.044015843602761895,0.02777344366950278,-0.025391666531716962,8.169007512361381E-4,1.020389795654969E-5,0.030216229975761386,-0.03925028239868553,0.024435215044425085,0.010560976958748379,-0.011155284627215413,0.006759211641526042,-0.02977128356496156,0.024145406560784635,-0.033706186609737065,0.037433075449268896,-0.04386672044954008,0.03199147151693253,-0.04665388160921165,0.02453825341975449,-0.016192049787781097,-0.03467412033734142
0.003625486779329598,-0.03605254694215805,-0.027666317288315256,0.021299548170132798,-0.006269081180638333,-0.04879583937861142,0.007771414241229756,-0.046005042748103686,0.026587258883827944,0.029861517620482864,0.034998526494371004,0.037329965636577714,0.038855577783554834,-0.041088440840490514,0.02537165259160505,0.005207802502757243,-0.030562449201390618,-0.004281003150413319,-0.03598226949011532,9.231583048508879E-4,-0.004575442371640072,0.019096394601058456,0.013934088215635604,0.02261937750056134,0.04428358332192604,0.0235052439701183,0.030582228838404737,0.03450197632380601,0.04663847712668605,-1.599373923866984E-4,0.020288949921170557,0.024548846412781614
0.002696466838110978,-0.019149634756642688,-0.0414777355326893,0.02861763480576525,-0.0028137200110790253,-0.030022066254219073,0.009988576295273457,0.008136000474236606,0.012615599344551004,-0.008765456381964798,0.02150138518575534,-0.036029462501627245,-0.04127798870449876,-0.005282110685593269,-0.009299224142623033,-0.007394621476342664,-0.0428170169231423,0.02746118800831719,0.04895680028376259,0.04242158253847464,-0.005033156959958998,0.032534492658911215,0.03516881282451606,0.0076536484229555515,-0.012851892188425938,-0.029336467889854646,-0.021323328650014097,0.005509544862881091,-0.029423036478991017,-0.03189558812510372,-0.0458713193690519,0.017975917881061343
-0.016515983484271267,-0.017889703390824033,0.01890501216268667,0.04399020770943375,-0.027082027485437744,0.041048738487899195,-0.005425726437066861,-5.340857733700938E-5,0.011855167894962847,-0.03992393821137233,0.00786479257475163,0.026912851939336832,8.863828104229698E-4,-0.04475219316443405,-0.0362389178568621,0.011470381674014388,-0.024422262413426633,-0.0209580557262941,-0.01641011810076838,0.003749709304007698,0.03991886780823248,-0.02150584349605246,0.004339041251888345,0.021019117783174862,-0.0012870132946990673,0.03349224056713916,0.0019564572436010716,-0.04190597808498164,-0.03267011369635056,-0.03275075820086683,-0.028994848595672352,-0.013130022226701635
-0.007367270000057945,0.00616274316145365,-0.11147430759541886,0.01967037610042479,-0.06394930685288784,-0.03290956003599069,-0.029420556349675983,-0.013215122978947294,-0.0018756169870886002,-0.004770620963970753,-0.050854892182527346,0.03499041670005603,-0.028051758217013882,0.02003192279928147,-0.03557819214812723,0.08356926079200061,0.009485464953620168,0.0172196969243743,-0.06044577598111791,-0.05284235566723168,0.021264285969417734,-9.128473093289477E-4,0.12404251533235633,0.019820698908211743,-0.015712902677294346,0.019760513456231282,-0.04336455890435335,-0.012208240224223855,-0.033547939254493085,-0.002674405700946486,-0.020654194593458887,0.01252150370269426
0.013989742552548826,-0.04863609464838652,0.010789882470361889,-0.012819116617491966,-0.04958220365065966,0.015423390958028249,0.03463705846085141,0.0232009624716642,0.04187367987886259,-0.01365771428894208,-0.018735176393233702,0.008267617594931977,-0.014882576282416272,-0.04440632019721252,0.0027873109858784217,-0.03622382725668081,0.004213849455163031,0.009069112954316762,0.027093149809631012,-0.03833431209998174,0.032261079383054656,-0.04769474244094738,-0.04433559313084617,0.030670235262413664,0.039766020172941466,0.049902871036431304,-0.01613808301975013,0.03545538630102911,0.0021503501483496196,0.047720203389298596,0.015115569640989118,0.012505296402407065
0.007561920631530508,0.009020682436487903,-0.03678790563945873,-0.01421412923669986,-0.03201707631850541,0.03647728970968059,-0.0372482920038422,-0.047505290669113846,0.011567545727376241,-0.029216197882639572,0.036848986242670634,0.02461863491046301,0.002208272626057904,-0.046404334538120484,0.0032821598991504275,0.035554791862635035,-0.04647862141812044,0.017620904795404096,0.03554896950031812,-0.027288538241528118,-0.021241418418039205,0.019904202159826162,0.03366610672559482,-0.023210129006958236,0.04559318631795688,-0.03430514798350579,0.0010532096426934187,-0.043641526056316875,-0.014704448933515739,-0.02023794993189504,-0.03152876535446872,0.0023662602819680273
0.039503980022658425,-0.03038149777230528,-0.046261036669367886,-0.048598073943679355,0.014613690585758746,-0.009163865964465799,-0.0031696733749940614,0.03879075404585969,-0.04625220482917996,-0.031514756364572,-0.03604091688278193,0.0030313314190085344,0.029340726730596567,-0.04929888079561168,-0.028613644453851006,-0.04839069237497508,0.005555894022957607,-0.029520165353885866,0.03994037482057557,-0.025114412451844793,0.019075768974334092,-0.0299724723100148,-0.04538325680424991,-4.5849368969073934E-4,-0.020755963413374868,-0.0016648092980419554,-0.029868601295640375,0.005973687422463979,-0.005894177421301328,0.027123610211851987,-0.027072621280702883,-0.004933565173376765
-0.012416583560960606,0.04290075520697477,-0.01710961500984392,-0.021070328889400327,-0.015158676677136308,-0.03640339018723309,-0.046092934984219174,-0.012524395653209099,0.007835916195830753,-0.0029119520926100956,0.01140383625086798,0.028117426488969907,0.04111126930560398,0.0058990298425291715,0.047132953142619324,0.009408542227651903,-9.05705430057871E-4,-0.03254093656076593,-0.023273520986338437,0.04110096603450229,-0.04954140303143362,0.022525529186651266,-0.046082337736731316,-0.0471133335758432,0.032567920317458976,-0.014276914159879896,0.026833190020670555,0.03199581897075705,0.019576454821664285,-0.04837390210498069,0.016388650422280507,-0.03413891818911513
1.3477021947193122,-1.9568708546111342,-5.657512639340243,-9.075709798715858,-0.8031167530103157,-6.492055323736584,-0.6729254323107555,-0.6383571183877006,-1.0014879468247673,-2.2978951265400736,-1.4555164388185737,-1.963234252566946,-4.058348611124975,-0.7279647272420168,-14.448775857889226,6.828975046035311,-0.6888041010519194,-3.842382064836369,-0.6693667209499155,-0.6910380187490862,-9.02970333502233,-0.7991440321020888,-33.94873902812298,0.6397741210336484,-0.6393001194899915,-0.8928731317919028,-0.4649987031567275,-0.6899419259752091,-14.921213098251894,-6.190153056150042,-0.8735130299635496,-1.0203952637096714
-4.966618131749189
-1.8148587986455869
-1.1933716306196775
2.0408138523465773
-1.9107528492906214
-3.053215534344312
-4.711120150177742
-1.9181217341645014
-5.279299828721694
-0.7726781508658469
-1.2482387802335728
-1.0241077862583265
-2.651019717529321
-1.8998346430409034
1.1891822111055088
1.6626418571943298
-2.0088746075283335
-1.4938387406615914
-1.967192999189497
-2.683966794691088
1.127915833843941
-1.9973124350023552
2.8528598869436967
-2.853554395549839
-1.9561153719157904
-1.675641895991841
-2.124379734314052
-1.89874107667509
-2.6792396098513342
-5.64752119457005
-2.0543866329742815
-1.5861990477612296